<?xml version="1.0"?>
<opencv_storage>
<opencv_ml_ann_mlp>
  <format>3</format>
  <layer_sizes>
    784 100 100 10</layer_sizes>
  <activation_function>SIGMOID_SYM</activation_function>
  <f_param1>6.6666666666666663e-001</f_param1>
  <f_param2>1.7159000000000000e+000</f_param2>
  <min_val>-9.4999999999999996e-001</min_val>
  <max_val>9.4999999999999996e-001</max_val>
  <min_val1>-9.7999999999999998e-001</min_val1>
  <max_val1>9.7999999999999998e-001</max_val1>
  <training_params>
    <train_method>BACKPROP</train_method>
    <dw_scale>1.0000000000000000e-003</dw_scale>
    <moment_scale>0.</moment_scale>
    <term_criteria>
      <epsilon>1.0000000000000000e-003</epsilon>
      <iterations>500</iterations></term_criteria></training_params>
  <input_scale>
    1. 0. 1. 0. 1. 0. 1. 0. 1. 0. 1. 0. 1. 0. 1. 0. 1. 0. 1. 0. 1. 0. 1.
    0. 1. 0. 1. 0. 1. 0. 1. 0. 1. 0. 1. 0. 1. 0. 1. 0. 1. 0. 1. 0. 1. 0.
    1. 0. 1. 0. 1. 0. 1. 0. 1. 0. 1. 0. 1. 0. 1. 0. 1. 0. 1. 0. 1. 0. 1.
    0. 1. 0. 1. 0. 1. 0. 1. 0. 2.1038466639100939e+000
    -4.4180779942111972e-003 7.3465782237226585e-001
    -5.7548196085827489e-003 1.1340324793763241e+000
    -4.0825169257547667e-003 2.7216779505031781e+001
    -4.0825169257547667e-003 1. 0. 1. 0. 1. 0. 1. 0. 1. 0. 1. 0. 1. 0.
    1. 0. 1. 0. 1. 0. 1. 0. 1. 0. 1. 0. 1. 0. 1. 0. 1. 0.
    1.5309438471580373e+001 -4.0825169257547667e-003
    5.1378417543335395e+000 -4.7096882748057442e-003
    9.4786496244496321e-001 -8.7993464013640752e-003
    4.7730511152646854e-001 -1.1590559124901078e-002
    3.3760533284073685e-001 -1.4758979800687546e-002
    3.0085576674119052e-001 -1.9284854648110313e-002
    2.0537012327968251e-001 -2.4671797476665858e-002
    1.8086495511061523e-001 -2.9071027118112890e-002
    1.7563481948961016e-001 -3.0592658308098594e-002
    1.7563787008994008e-001 -3.1164012749625037e-002
    1.6883284765585466e-001 -3.1962871942047548e-002
    1.7342828322169204e-001 -3.0202535523057669e-002
    1.6749403091669038e-001 -3.1310217512693320e-002
    1.8472760188024673e-001 -2.8383396028899912e-002
    2.3092249674211657e-001 -2.3119190632164905e-002
    2.6906821685325510e-001 -1.9166625980513538e-002
    3.1165625491435334e-001 -1.6772300785307448e-002
    5.1465024036334295e-001 -1.0996360135763427e-002
    8.2560602957106433e-001 -8.3248607981748976e-003
    1.2398189311055090e+000 -4.3806935565727980e-003 1. 0. 1. 0. 1. 0.
    1. 0. 1. 0. 1. 0. 3.8273596178950933e+000 -4.0825169257547667e-003
    7.7076371143579658e+000 -5.3953459800505765e-003
    1.2262463813256379e+000 -8.5224123502131831e-003
    2.1857209069202939e+000 -1.1985036306279610e-002
    3.7480844479353959e-001 -1.7653477749775714e-002
    2.0022325818265649e-001 -2.7710898932479657e-002
    1.4013031729855807e-001 -3.7020094324990732e-002
    1.0294031691548404e-001 -5.2151280221332807e-002
    7.7337564294725908e-002 -6.7036200730668419e-002
    6.4350144069828780e-002 -8.3017048362084941e-002
    5.3134064659327226e-002 -9.9379297835572672e-002
    4.5528222999621615e-002 -1.1518412777789271e-001
    4.0333765593801335e-002 -1.2913325615454091e-001
    3.8172050383375566e-002 -1.3839467726744728e-001
    3.7314415010388242e-002 -1.3888363076174820e-001
    3.8862636726537038e-002 -1.3184343822661324e-001
    4.2965532185901718e-002 -1.2042952234827012e-001
    4.9839378548531522e-002 -1.0189079484830869e-001
    6.5388748483052359e-002 -7.8604904363951955e-002
    8.9976498603427962e-002 -5.6995613040341439e-002
    1.3390326577294903e-001 -3.9657683879755073e-002
    2.5247440459466680e-001 -2.3728386125155435e-002
    4.0004769536487894e-001 -1.4088346338433153e-002
    9.0704718335127554e-001 -7.8308406829326795e-003 1. 0. 1. 0. 1. 0.
    1. 0. 1.6603229489473221e+000 -5.3683775349296749e-003
    1.5163428875843565e+000 -8.8706058923684866e-003
    1.1709417775958955e+000 -1.4070817027444010e-002
    3.1744113434375015e-001 -2.2146809806048971e-002
    1.6587883755403252e-001 -3.5180136797917733e-002
    1.0075751730349713e-001 -5.5023680199439789e-002
    6.8516103777253992e-002 -7.9096132135524966e-002
    4.8580266476534253e-002 -1.0764901248535225e-001
    3.7687844665627961e-002 -1.3716993570650837e-001
    3.0729268372916497e-002 -1.6710576141191991e-001
    2.6462458803787101e-002 -1.9600875548259125e-001
    2.3151210409567968e-002 -2.2449111368547134e-001
    2.0925208082991271e-002 -2.4865599141752553e-001
    1.9801368144819295e-002 -2.6211797063462611e-001
    2.0007967342284324e-002 -2.6259690164666721e-001
    2.0980704578722208e-002 -2.4785590321914444e-001
    2.3255946689967451e-002 -2.2194700322681937e-001
    2.7278164226132485e-002 -1.8721140499215855e-001
    3.5205639871294270e-002 -1.4764013164625320e-001
    4.7552439450484485e-002 -1.0816436385538704e-001
    7.2393683818392299e-002 -7.6812111654108173e-002
    1.1396537993357475e-001 -4.7075299604561950e-002
    1.8633604677174664e-001 -3.0201967580920600e-002
    5.4890432975324055e-001 -1.5241243556148311e-002
    1.8870427315559291e+000 -5.2837196483566011e-003 1. 0. 1. 0.
    6.4460793564548942e+000 -4.0825169257547658e-003
    1.4881961063114144e+000 -7.7634230212578776e-003
    1.0378574750912513e+000 -1.4893254767559455e-002
    2.9626314199892556e-001 -2.3962750468679763e-002
    1.2271782724507993e-001 -5.0340898033052542e-002
    7.5503214617767808e-002 -7.8767470263075956e-002
    4.8023122663132030e-002 -1.1618154027353761e-001
    3.3763819709914628e-002 -1.6124756197962478e-001
    2.5250311458977676e-002 -2.1196163534976650e-001
    2.0052094965084099e-002 -2.6689873121059338e-001
    1.6720901271095080e-002 -3.2567801032750021e-001
    1.4433780328490018e-002 -3.9024154804428057e-001
    1.2838641258765621e-002 -4.5207637577719822e-001
    1.1935670058468253e-002 -4.9939798378235850e-001
    1.1566812160518124e-002 -5.2342832397506245e-001
    1.1674165860786076e-002 -5.1761889440708375e-001
    1.2286269902340810e-002 -4.8090241906897768e-001
    1.3504748722938009e-002 -4.2307969402109191e-001
    1.5561919052793203e-002 -3.5674039490496118e-001
    1.9127727707166170e-002 -2.8368364842044325e-001
    2.5034828244085983e-002 -2.1683666135332635e-001
    3.4856099854641463e-002 -1.5852438026891422e-001
    5.0904882032675139e-002 -1.0878458131852732e-001
    8.2190903785030009e-002 -7.0922530876102396e-002
    1.8750171775889582e-001 -3.8953481864410604e-002
    4.8068752630553679e-001 -1.4252385154959166e-002
    2.8379498678091473e+000 -5.7704980645452656e-003 1. 0. 1. 0.
    1.1536420576779074e+000 -1.1901740561710412e-002
    3.4806876020438438e-001 -2.2050155958947753e-002
    1.3108076953627013e-001 -5.1838074992610297e-002
    6.1951416938616229e-002 -9.0659703547970996e-002
    3.8928522875927463e-002 -1.3966710556553796e-001
    2.7267172044038460e-002 -1.9708212055276858e-001
    2.0310544526470912e-002 -2.6438472766459992e-001
    1.6058619090491534e-002 -3.4073044164379185e-001
    1.3413662972845386e-002 -4.2253574910981878e-001
    1.1659149742615876e-002 -5.1540864854364965e-001
    1.0458320244453354e-002 -6.1603532693124363e-001
    9.7011251647249417e-003 -7.1598329682613437e-001
    9.3313156332037895e-003 -7.9412046598170660e-001
    9.2169012100847113e-003 -8.3504925263841268e-001
    9.2684362963140459e-003 -8.2418581131767721e-001
    9.5139360324611212e-003 -7.6283928350277330e-001
    1.0108144176694272e-002 -6.6655949828398464e-001
    1.1171070003323126e-002 -5.5625039790047115e-001
    1.3031960000588465e-002 -4.4764565402688039e-001
    1.6161069925254887e-002 -3.4762461409223266e-001
    2.1051996788279799e-002 -2.6084090667243637e-001
    2.8664363472002463e-002 -1.9030605326636274e-001
    4.3799712526290821e-002 -1.3108012967263930e-001
    8.8715176669426937e-002 -7.4846037383439853e-002
    2.2544219187530931e-001 -3.1930129109272974e-002
    1.7465783701487902e+000 -8.2089183396993146e-003 1. 0.
    3.0382652336798213e+001 -5.5701529284130054e-003
    5.6952462131221326e-001 -1.5661927086085863e-002
    1.6422848396732007e-001 -3.6365660633163578e-002
    7.0587879827199648e-002 -7.9024307931213802e-002
    4.0514631513379903e-002 -1.3328908621586855e-001
    2.6780784428177353e-002 -1.9915441070732662e-001
    1.9322387991394883e-002 -2.7542969146413893e-001
    1.5052602089655870e-002 -3.6333594608959097e-001
    1.2418851013265312e-002 -4.6308053298899382e-001
    1.0822571024019725e-002 -5.7484518896921732e-001
    9.8544086338043825e-003 -6.9880387280738732e-001
    9.2830187890575854e-003 -8.2877368352491809e-001
    9.0074868253702551e-003 -9.5689204766999747e-001
    8.9149207576242825e-003 -1.0564726393771116e+000
    8.9019724135588046e-003 -1.1047183078736826e+000
    8.9022737607425007e-003 -1.0835076091183173e+000
    8.9165573854273171e-003 -9.9895164574737372e-001
    9.1017039348284430e-003 -8.7474762363395098e-001
    9.6395423414931299e-003 -7.2455973459718970e-001
    1.0744575840055575e-002 -5.8060589820293118e-001
    1.2804502010278487e-002 -4.5215876382959225e-001
    1.6164493498503400e-002 -3.3932343107123353e-001
    2.1755020593201647e-002 -2.4893037280300365e-001
    3.2098587832302343e-002 -1.7293970156995084e-001
    5.6103241780279242e-002 -1.0410424039345649e-001
    1.2964213042516703e-001 -4.8317622009459750e-002
    4.8541314454218504e-001 -1.4708018279628208e-002
    5.2117237350060854e+000 -4.0825169257547667e-003
    6.7049033577396222e-001 -1.3231009292606188e-002
    2.4375065889415110e-001 -2.6243820940936934e-002
    9.9317704767939163e-002 -5.9158590845022965e-002
    4.8869076680976266e-002 -1.1300485291708950e-001
    3.0097579331474431e-002 -1.7844152508780120e-001
    2.0746524026233240e-002 -2.5800481011643789e-001
    1.5629562512516047e-002 -3.5091181161850776e-001
    1.2649151806693614e-002 -4.5909822417438662e-001
    1.0837898273378558e-002 -5.8414555692950476e-001
    9.8279264066316891e-003 -7.2495420680603806e-001
    9.3051070721609456e-003 -8.7563926623715083e-001
    9.0948880042541775e-003 -1.0148029044892122e+000
    9.0573545680194597e-003 -1.1321685662228851e+000
    9.0554108274627180e-003 -1.2021883425077196e+000
    9.0808663884127377e-003 -1.2295375038647796e+000
    9.0723709836048102e-003 -1.2096976992530375e+000
    9.0356182139097012e-003 -1.1446098274798200e+000
    9.0106171506072388e-003 -1.0231255420609500e+000
    9.2054011907544645e-003 -8.6295358399973732e-001
    9.8953953711339582e-003 -6.9048023851396068e-001
    1.1378785206741562e-002 -5.3290132006238677e-001
    1.4125519371424632e-002 -3.9754744006276055e-001
    1.8925092601564067e-002 -2.8768127889100548e-001
    2.8009150098363078e-002 -1.9700702540851978e-001
    4.6932781744196905e-002 -1.2122893967131874e-001
    1.1071645081439330e-001 -5.6808610912865203e-002
    4.8271828388700305e-001 -1.5390667951263946e-002
    1.2357769628161059e+000 -5.0254929821188302e-003
    3.4084327675239168e-001 -1.7320519180300704e-002
    1.3079811498430369e-001 -4.3080539138663484e-002
    6.4712412758713506e-002 -8.5248896947691236e-002
    3.7207419379852932e-002 -1.3945836882493945e-001
    2.4858152431941404e-002 -2.1088330755129384e-001
    1.7838905150873663e-002 -3.0001797729333762e-001
    1.3760719731315114e-002 -4.0728152617562596e-001
    1.1354928120847716e-002 -5.3288847995060140e-001
    9.9935311401737701e-003 -6.8062942536381499e-001
    9.3252364895925095e-003 -8.4198850255578495e-001
    9.0567574469155917e-003 -9.8243825473033908e-001
    9.0001864657767855e-003 -1.0749410206177445e+000
    8.9792216175286245e-003 -1.1079807253900844e+000
    8.9938924314447530e-003 -1.1065909866747210e+000
    9.0251680310060711e-003 -1.1041449232725029e+000
    9.0281449405893929e-003 -1.1080246799657834e+000
    9.0074291609982537e-003 -1.1002043281838867e+000
    8.9779656800706639e-003 -1.0437866693996500e+000
    9.0743768988995922e-003 -9.1297850442442741e-001
    9.5603998434639730e-003 -7.3919131377694225e-001
    1.0794544642347401e-002 -5.7100550467303579e-001
    1.3318540978204832e-002 -4.2367100161696558e-001
    1.8229752003881883e-002 -2.9819620669549857e-001
    2.7511175302463796e-002 -1.9768613533173737e-001
    4.6299027012198526e-002 -1.2068381546044687e-001
    1.1199645993336554e-001 -5.3935628496243289e-002
    4.9683176133878221e-001 -1.3505543379059230e-002
    1.2135025916301894e+000 -5.9057126126002548e-003
    2.6564179405804561e-001 -2.1109667901146024e-002
    1.0349084381728776e-001 -5.2989036881848292e-002
    5.4134811331694038e-002 -9.3078492356859194e-002
    3.3829270306457576e-002 -1.5039873374962087e-001
    2.3065104567247429e-002 -2.2619102328598756e-001
    1.6574686520695520e-002 -3.2364534010158574e-001
    1.2813608645905221e-002 -4.4213121716537451e-001
    1.0680765347830560e-002 -5.8424747721514458e-001
    9.5801693578614795e-003 -7.4857559262355899e-001
    9.0918936977612066e-003 -9.0044933236446290e-001
    8.9727262193568576e-003 -9.9238770713310409e-001
    8.9819519055079709e-003 -9.9508844582905953e-001
    9.0820062361602442e-003 -9.4955659857977437e-001
    9.1764797612000990e-003 -9.0890462620353851e-001
    9.1956015418566493e-003 -9.1393597102263968e-001
    9.1467019539129609e-003 -9.5430483674302435e-001
    9.0464398169267015e-003 -1.0030879428764543e+000
    8.9980387824558083e-003 -9.9948655135463493e-001
    9.0926540338881860e-003 -9.0150861177674246e-001
    9.5622567025844003e-003 -7.3668151560828854e-001
    1.0769019356842361e-002 -5.6758942145055025e-001
    1.3360669430876521e-002 -4.2017189920780101e-001
    1.8851421857897347e-002 -2.9017459542242080e-001
    3.0444269756015222e-002 -1.8148235125157422e-001
    5.5290631176703513e-002 -1.0493977495234404e-001
    1.3419187001379709e-001 -4.7213172933187608e-002
    5.0079854522521305e-001 -1.4130865617771429e-002
    8.6592077801118750e-001 -5.7728051867412507e-003
    2.2961390400521112e-001 -2.2632277138113641e-002
    1.0095565869099236e-001 -5.2803174684012043e-002
    5.5061939830372622e-002 -9.2205806740944821e-002
    3.4378371408908800e-002 -1.4745169983709391e-001
    2.3012820556852713e-002 -2.2728458804171869e-001
    1.6184974494829037e-002 -3.3242831639121695e-001
    1.2441736626448881e-002 -4.6269615812556164e-001
    1.0366445817928003e-002 -6.1903352143624946e-001
    9.4040119553180906e-003 -7.8428268532505208e-001
    9.0616285729332741e-003 -9.0820987918795304e-001
    9.0276598486294709e-003 -9.3137298385228173e-001
    9.2614461294292412e-003 -8.6957693484385423e-001
    9.6085890673250074e-003 -7.9705952732714902e-001
    9.7127245345455509e-003 -7.7141210191978882e-001
    9.5067723677463162e-003 -8.0356009282996355e-001
    9.3102427461099514e-003 -8.7393929706678419e-001
    9.1123038468280335e-003 -9.5157541370809595e-001
    9.0526943272145437e-003 -9.6213106545131555e-001
    9.1642554906533492e-003 -8.6347325893960780e-001
    9.7610766420335414e-003 -7.0132424639191082e-001
    1.1122250632863200e-002 -5.3739656439070949e-001
    1.3932455672998783e-002 -3.9677102693919941e-001
    2.0093294770402510e-002 -2.7122264169335480e-001
    3.4631988773663712e-002 -1.5932446435323991e-001
    7.0653342057910351e-002 -8.1258408700802684e-002
    1.6657039989223177e-001 -3.6950867042760079e-002
    6.3381134461946831e-001 -1.1873399189204707e-002
    1.1890742635516922e+000 -7.0551739637400397e-003
    2.7187404253543629e-001 -2.0771176849707331e-002
    1.1215355577505325e-001 -4.7203562399790323e-002
    6.4047150216850077e-002 -8.2003836232647606e-002
    3.7699984436756581e-002 -1.3745728492178422e-001
    2.3569637058332028e-002 -2.2518195549159836e-001
    1.6017065431567844e-002 -3.3849238108059060e-001
    1.2117447090558515e-002 -4.8293499702811588e-001
    1.0115402446214745e-002 -6.4828821904598688e-001
    9.2857287761024532e-003 -8.0980531132096956e-001
    9.0752699606343259e-003 -8.9646046061893581e-001
    9.1895703573481244e-003 -8.7178559265499089e-001
    9.6099674381496681e-003 -7.8497609556634629e-001
    9.9879206995551022e-003 -7.3254173735263994e-001
    9.7307756351548563e-003 -7.4095055945724220e-001
    9.3907556905952812e-003 -8.0221046978473176e-001
    9.2634071053515083e-003 -9.0126281481954318e-001
    9.0965707880393890e-003 -9.7772292777300929e-001
    9.0565166767232076e-003 -9.5554794253494879e-001
    9.2655007477132657e-003 -8.2490289881853818e-001
    1.0100768352726762e-002 -6.5598783516841030e-001
    1.1750607276521729e-002 -4.9936418652616171e-001
    1.4583948964667304e-002 -3.6957330910853065e-001
    2.0545306471433603e-002 -2.5846440689370354e-001
    3.7518820030696919e-002 -1.4969571472681045e-001
    1.0108848101217496e-001 -6.1111356387893508e-002
    2.2499252054679278e-001 -2.8011568808075701e-002
    1.1173591407938479e+000 -9.1250996498164240e-003
    1.3958819197838115e+000 -5.3043512951784838e-003
    3.7172987183149653e-001 -1.6238399901172540e-002
    1.5030415156391430e-001 -3.6378614816852721e-002
    7.8039041670625295e-002 -6.8582010470840019e-002
    4.1503882772181609e-002 -1.2736849891403002e-001
    2.3538333232684960e-002 -2.2614335961635912e-001
    1.5462427079906763e-002 -3.5220290631899825e-001
    1.1648493961269058e-002 -5.0758351264543122e-001
    9.8511889908257204e-003 -6.7944963961590432e-001
    9.1766156748710921e-003 -8.2825104798213767e-001
    9.0795319460043253e-003 -8.8883003574129060e-001
    9.2432547929562799e-003 -8.4190091143889212e-001
    9.6169336711802098e-003 -7.6653452789534315e-001
    9.7040862635580302e-003 -7.7020475479573480e-001
    9.1824004548704888e-003 -8.2034371951753815e-001
    9.0221486619736380e-003 -9.1768349044746200e-001
    9.1039929428001869e-003 -1.0290959404025219e+000
    9.0004175478489486e-003 -1.0582789957353820e+000
    8.9891423011017220e-003 -9.6567404305680271e-001
    9.3999912450939676e-003 -7.9447676337845186e-001
    1.0527038572582560e-002 -6.1674936335832320e-001
    1.2285167278453694e-002 -4.7007288390074897e-001
    1.4959388512931451e-002 -3.5512441443246612e-001
    2.0091687812791130e-002 -2.5540754464498211e-001
    3.5817150554283542e-002 -1.5382451343799078e-001
    1.1834017383780147e-001 -5.2454282053605500e-002
    2.6955335370853167e-001 -2.1505865070045684e-002
    9.7593261748757754e-001 -9.9219816111237036e-003
    7.6547192357901865e+000 -4.0825169257547667e-003
    5.9914440434565353e-001 -1.0934385379308176e-002
    2.0833055220658958e-001 -2.5544797876397993e-002
    9.3973239798281594e-002 -5.7073080970823017e-002
    4.2724174432875753e-002 -1.2466202029939263e-001
    2.2427537614770596e-002 -2.3849817291840633e-001
    1.4606786361226609e-002 -3.7325889731751249e-001
    1.1204170363603227e-002 -5.3313606806675962e-001
    9.6664264279342823e-003 -7.0209413981322266e-001
    9.1351227959779544e-003 -8.3745004990550431e-001
    9.0833794130886179e-003 -8.8007424931675216e-001
    9.2319999839093215e-003 -8.4101427266750906e-001
    9.4027437080550415e-003 -8.1679095851072969e-001
    9.1982651471546207e-003 -8.9192403730482583e-001
    8.7863379291949449e-003 -9.7855056346064451e-001
    8.9601106040964398e-003 -1.1108034291517508e+000
    9.0953034118440544e-003 -1.1806299570947056e+000
    8.9167596206221351e-003 -1.1288577554289330e+000
    8.9646163171245557e-003 -9.7607041281396068e-001
    9.5517249996382881e-003 -7.7519539522147773e-001
    1.0763916272172904e-002 -5.9444660485818457e-001
    1.2388528244233175e-002 -4.6091023791539754e-001
    1.4829329311590322e-002 -3.5550054572089246e-001
    1.9316476802955316e-002 -2.6354918038032160e-001
    3.2238662755345197e-002 -1.6450368713065402e-001
    1.0178387638579016e-001 -5.9513032522771507e-002
    2.8160676310321775e-001 -2.3368667891515354e-002
    6.8137948719919539e-001 -7.4043237608979236e-003
    2.1677081021706726e+000 -4.0825169257547667e-003
    9.6828429446622244e-001 -7.9883454293463354e-003
    3.3778067000818779e-001 -1.8296452958776840e-002
    1.1012713424410198e-001 -5.1339434532362942e-002
    4.2193078163128728e-002 -1.2934639719891805e-001
    2.0849796247658994e-002 -2.5752139340050229e-001
    1.3846410772487106e-002 -3.9501132961156366e-001
    1.0897630979309679e-002 -5.5042172292818203e-001
    9.5907413426751294e-003 -7.0732308831278545e-001
    9.1408352561085510e-003 -8.2604981707907066e-001
    9.1278995218893790e-003 -8.6785315071101776e-001
    9.2266829733360003e-003 -8.6074372211415462e-001
    9.2409831619656383e-003 -9.0403567970277843e-001
    8.9645791564348255e-003 -1.0347035295982636e+000
    8.7929712365879820e-003 -1.1454361823194157e+000
    9.1305985089769198e-003 -1.2742078920823614e+000
    9.1042142617443842e-003 -1.2481935412875207e+000
    8.8985315860213837e-003 -1.1397750920942384e+000
    9.0031104051283874e-003 -9.6328344629334939e-001
    9.5911179236369565e-003 -7.6301131574111825e-001
    1.0642844571430145e-002 -5.9702704002420259e-001
    1.2120770906235662e-002 -4.7201998945292917e-001
    1.4424704567579208e-002 -3.6837041207106841e-001
    1.8700098612517119e-002 -2.7332531634520335e-001
    3.0303960202343848e-002 -1.7338663362772719e-001
    8.4045739185599391e-002 -6.8942719853947176e-002
    2.6657282114179148e-001 -2.4644657314558623e-002
    3.1510835765894534e+000 -6.9849019281066219e-003
    6.5049273574319830e+000 -4.7702800621167874e-003
    1.0834727644497475e+000 -4.1894280225390238e-003
    4.1348683773770312e-001 -1.8648256381970412e-002
    1.0536764207332489e-001 -5.3272123704905180e-002
    3.9437687853005290e-002 -1.4042051677981554e-001
    1.9237766378276837e-002 -2.7718062364316937e-001
    1.3302078070767992e-002 -4.1220900758168094e-001
    1.0818343387599577e-002 -5.5400339815306554e-001
    9.6864675984830468e-003 -6.9200544270492148e-001
    9.2448693226821633e-003 -7.9258313982720718e-001
    9.2135184390030808e-003 -8.4194083559182187e-001
    9.2290378319375942e-003 -8.6976698260718999e-001
    9.1260415072594771e-003 -9.5866434691792879e-001
    8.8804006446702895e-003 -1.0941026571060872e+000
    8.8797964875475550e-003 -1.2048945535106514e+000
    9.1468978002377660e-003 -1.2724254103359656e+000
    8.9802249753631255e-003 -1.1836340627652491e+000
    8.8799652257232943e-003 -1.0783524891312286e+000
    9.1038267435211984e-003 -9.2258453333646129e-001
    9.6005143329042260e-003 -7.5248127303585577e-001
    1.0462540184554626e-002 -6.0978718332237880e-001
    1.1799828497338932e-002 -4.8675393868849515e-001
    1.4117684561402858e-002 -3.8089677652984794e-001
    1.8689568617624490e-002 -2.7829889045759920e-001
    3.0110332991676945e-002 -1.7549155193650753e-001
    7.1349130087979176e-002 -7.7026142538646050e-002
    1.9988510513655666e-001 -2.9626303999656638e-002
    8.4094525335208525e-001 -9.1102402446475907e-003
    6.1237753886321498e+000 -4.0825169257547667e-003
    1.6909102611898854e+000 -6.7072773693865459e-003
    2.9060222872968322e-001 -2.1601432335573118e-002
    9.7449342839386846e-002 -6.0707692277510023e-002
    3.5128318226281312e-002 -1.5702241152753660e-001
    1.7978327035971048e-002 -2.9716316829999756e-001
    1.2972135741630021e-002 -4.2230679805745347e-001
    1.0926611684804018e-002 -5.4572670683442071e-001
    9.9394243167690299e-003 -6.5910028912336482e-001
    9.5170892642893745e-003 -7.4125055232891279e-001
    9.4183173905225872e-003 -7.8837956472434367e-001
    9.3234438830669935e-003 -8.3396729322086094e-001
    9.0908602873452683e-003 -9.1941339753528917e-001
    8.8553309504785412e-003 -1.0259556200619726e+000
    8.8775613412684518e-003 -1.1227755144981371e+000
    8.9860571702642302e-003 -1.1450631619152505e+000
    8.9169675187790176e-003 -1.0794597021434531e+000
    8.9903200414028113e-003 -9.9988631339674205e-001
    9.2156451799928485e-003 -8.7891758398800457e-001
    9.6126381809093359e-003 -7.4358354374596913e-001
    1.0327951414885607e-002 -6.1562164263755803e-001
    1.1728731090174187e-002 -4.9307976460795289e-001
    1.4212188896869156e-002 -3.7987428084700636e-001
    1.9203497078539213e-002 -2.7351764929762651e-001
    3.0903316836217960e-002 -1.7353912085962375e-001
    6.5301956507944486e-002 -8.4050148221375340e-002
    1.7839395414126039e-001 -3.4162442218051363e-002
    7.2680060806126534e-001 -8.9396474791535643e-003 1. 0.
    1.2263737007433526e+000 -8.9320884537474176e-003
    2.2636152789709318e-001 -2.5397763430053854e-002
    7.7516311632616741e-002 -7.3900175694955175e-002
    2.9881229021335241e-002 -1.7786004742175898e-001
    1.6917332253984091e-002 -3.1338342960570287e-001
    1.2825042487910698e-002 -4.2901306127159833e-001
    1.1106879955347627e-002 -5.3508893613681163e-001
    1.0267557252323577e-002 -6.2078198750601798e-001
    9.8628811810199234e-003 -6.8268923835054318e-001
    9.6874184941051992e-003 -7.2347013698264284e-001
    9.4821683198973647e-003 -7.6555897899305758e-001
    9.2097577685446678e-003 -8.2507042481961534e-001
    9.0180135158619921e-003 -9.1939023544776177e-001
    8.9352815371610324e-003 -1.0062601332296954e+000
    8.9470083282042461e-003 -1.0328150547988861e+000
    9.0041800398750205e-003 -1.0106726878790984e+000
    9.1032483615716333e-003 -9.5150929723216771e-001
    9.2356390105956653e-003 -8.5546568645152354e-001
    9.5820198680995929e-003 -7.4032106833884559e-001
    1.0336779490160927e-002 -6.1326579426167072e-001
    1.1888667060846268e-002 -4.8515629201913280e-001
    1.4755469135091659e-002 -3.6804197776930747e-001
    2.0318339514053187e-002 -2.6078182399496985e-001
    3.2644014383103000e-002 -1.6833375676862808e-001
    6.2500684961346781e-002 -8.8542637028574608e-002
    1.7109776495512422e-001 -3.5936233899407921e-002
    1.2057200212717352e+000 -1.0710812855630580e-002
    3.1084035706307054e+000 -5.9059667841983403e-003
    1.1947550115224044e+000 -6.3521141445941169e-003
    1.8459952406871327e-001 -3.3320214094402743e-002
    6.0063061530205179e-002 -9.1304862985141400e-002
    2.6124691582275841e-002 -1.9910803065973620e-001
    1.6062765900929157e-002 -3.2796741246305139e-001
    1.2574762178659240e-002 -4.3899542662547630e-001
    1.1092271024320957e-002 -5.3445408811407946e-001
    1.0397746220095131e-002 -6.0594789680655092e-001
    9.9918239700375680e-003 -6.5940509392984525e-001
    9.7265660223358908e-003 -6.9784836599699163e-001
    9.5376283492236060e-003 -7.3042289419662365e-001
    9.3973170455657826e-003 -7.8112566692492813e-001
    9.1631363690461050e-003 -8.7168855191159800e-001
    8.9947413603606984e-003 -9.5845445408422691e-001
    9.0127820363154667e-003 -1.0112466121564123e+000
    9.0746977830615579e-003 -1.0104488437684862e+000
    9.0740873457440842e-003 -9.5294507586676680e-001
    9.1725874047577736e-003 -8.5872463833459933e-001
    9.5567783204039188e-003 -7.3231139362819653e-001
    1.0492049895120014e-002 -5.9491059544069125e-001
    1.2272183566913935e-002 -4.6342915009115859e-001
    1.5468821882370341e-002 -3.4877114414893740e-001
    2.1602314695750677e-002 -2.4588474663859947e-001
    3.4548855257881220e-002 -1.5820093566860099e-001
    6.5794896362632041e-002 -8.5437962671695844e-002
    2.0501057750388216e-001 -3.1557961563764260e-002
    8.0112838185817015e-001 -9.7604141189720391e-003
    1.6330067703019068e+001 -4.0825169257547676e-003
    9.2599146384527464e-001 -1.1281662667848262e-002
    1.3885709865451468e-001 -3.9757101629765125e-002
    5.0812940557092921e-002 -1.0385233479292914e-001
    2.4299944569476883e-002 -2.1198097145090775e-001
    1.5527313999749314e-002 -3.3747788855041810e-001
    1.2263456380429100e-002 -4.5170193276974174e-001
    1.0830555475179219e-002 -5.5213160960619312e-001
    1.0134482034941036e-002 -6.3188647505087880e-001
    9.7265278391635620e-003 -6.9322439099774313e-001
    9.4810228062583851e-003 -7.3838490045824501e-001
    9.3269664859713421e-003 -7.7073076657941308e-001
    9.2118835958347536e-003 -8.2876952328269016e-001
    9.0652411048955366e-003 -9.1927271014272005e-001
    8.9715128503452118e-003 -1.0088060986882783e+000
    9.0050697105492471e-003 -1.0608282793932027e+000
    9.0414249902396691e-003 -1.0481237261139540e+000
    9.0015145645349817e-003 -9.6705521345440448e-001
    9.1734534916265917e-003 -8.4650228433733210e-001
    9.7550161788788840e-003 -7.0122275449120453e-001
    1.0932734670331646e-002 -5.5538565443651511e-001
    1.3062795677920784e-002 -4.2707460646741952e-001
    1.6875887836370441e-002 -3.1681047982258770e-001
    2.4101940546579017e-002 -2.2068580332366877e-001
    3.8751463222016364e-002 -1.4105726370130067e-001
    7.3159609120596256e-002 -7.8171042345357100e-002
    1.9892691542262070e-001 -2.9182578492498456e-002
    1.1745052636088484e+000 -8.0257859679937985e-003 1. 0.
    6.7743045194532669e-001 -1.0342104899698654e-002
    1.3034223502601749e-001 -4.3273622028637812e-002
    4.8396784585620529e-002 -1.0916701376363136e-001
    2.4554369196308077e-002 -2.0903257268663047e-001
    1.5957442297017288e-002 -3.3022464068133384e-001
    1.2265676368740121e-002 -4.5487526569794062e-001
    1.0581039790359304e-002 -5.6919680718391474e-001
    9.7712862742586806e-003 -6.7294360006505827e-001
    9.3716729213697333e-003 -7.6060122562919896e-001
    9.1670714229806546e-003 -8.2875749514337049e-001
    9.0565093371887725e-003 -8.8650818993286140e-001
    8.9927793155633890e-003 -9.5984040337562160e-001
    8.9601866312100115e-003 -1.0513839685493109e+000
    8.9706534258689029e-003 -1.1209048246414319e+000
    8.9915709913075108e-003 -1.1289434394918580e+000
    8.9897909461324008e-003 -1.0627393739357245e+000
    9.0489413975631070e-003 -9.3933290255853630e-001
    9.3869994595349414e-003 -7.8734756501774561e-001
    1.0238985882502244e-002 -6.2699095585584852e-001
    1.1917777300855883e-002 -4.8806277491330052e-001
    1.4791158246896483e-002 -3.6895114434919413e-001
    1.9759322047736599e-002 -2.6929222578181711e-001
    2.8636730168165581e-002 -1.8721262347438247e-001
    4.4816751016600868e-002 -1.2162743363810283e-001
    8.8757045142441426e-002 -6.6493819652545694e-002
    2.3309658019791660e-001 -2.6033003065103984e-002
    3.4296926369754859e+000 -5.7733159389087348e-003
    7.6547192357901865e+000 -4.0825169257547667e-003
    7.8814988570461819e-001 -1.0009503548448651e-002
    1.4248410269843431e-001 -4.0498731456984981e-002
    5.4363151333695764e-002 -9.9984707932933251e-002
    2.8375327488622572e-002 -1.8820172417891326e-001
    1.7729156407121936e-002 -2.9963131237262419e-001
    1.3022109541900492e-002 -4.2724846894466612e-001
    1.0766760710396927e-002 -5.5525136047379708e-001
    9.6810743355093577e-003 -6.8177739738408816e-001
    9.1870388757289943e-003 -8.0158751598510614e-001
    8.9979268816343348e-003 -9.0865684586542761e-001
    8.9719310664269480e-003 -1.0089452370233423e+000
    9.0022585562169813e-003 -1.1036228854408645e+000
    9.0612208366722975e-003 -1.1813322012848917e+000
    9.0423344294405638e-003 -1.1921856786161482e+000
    9.0119546128711852e-003 -1.1253050489984862e+000
    9.0406791698941658e-003 -9.9470795821094149e-001
    9.3022236841844245e-003 -8.3223274412924364e-001
    1.0018220458531771e-002 -6.6712599007954476e-001
    1.1463256311922469e-002 -5.2269449230298171e-001
    1.3974510147232210e-002 -3.9906542810446116e-001
    1.8207166230644323e-002 -2.9670064291410431e-001
    2.4981100867880378e-002 -2.1262622368528269e-001
    3.6186649309320182e-002 -1.4869395756610573e-001
    5.6897637528183539e-002 -9.6895728416537763e-002
    1.1475704424736648e-001 -5.0931088854385367e-002
    3.4232733864082288e-001 -2.0214429346740590e-002
    6.2807952703919492e+000 -4.0825169257547667e-003
    7.9016456627511626e+000 -4.0825169257547676e-003
    6.1066837998566887e+000 -6.0049057365257437e-003
    1.8016755677681681e-001 -3.3706347080329477e-002
    7.2587196736811327e-002 -7.8972450476426176e-002
    3.7455665821716146e-002 -1.4774137678937121e-001
    2.2428955822545487e-002 -2.4325024984597407e-001
    1.5405581048547274e-002 -3.6034629759351816e-001
    1.1969998229364799e-002 -4.8644317204398235e-001
    1.0208599615130163e-002 -6.2240998151146698e-001
    9.3414041031404278e-003 -7.5670417593653161e-001
    8.9670432839366356e-003 -8.8873651263300035e-001
    8.8608855988812490e-003 -1.0021705916762687e+000
    8.8928679606332679e-003 -1.0895925700834848e+000
    8.9179406011185743e-003 -1.1174380226865099e+000
    8.9114340937564915e-003 -1.0748398501629048e+000
    8.9850710736181592e-003 -9.6307263008735955e-001
    9.3227862196658406e-003 -8.1766817267627045e-001
    1.0074657913157727e-002 -6.6465591023765036e-001
    1.1549793802228309e-002 -5.2359507978864084e-001
    1.3996888188408021e-002 -4.0214202844498298e-001
    1.7929426219009413e-002 -3.0306915962171466e-001
    2.4197135218011402e-002 -2.2168084444305056e-001
    3.3843079925784600e-002 -1.5936593526785550e-001
    4.9465112384615262e-002 -1.1006069947430872e-001
    8.3866566172356299e-002 -7.0039764962740489e-002
    1.9636356479161621e-001 -3.7135622828174480e-002
    6.8419120753163565e-001 -1.2201409867647502e-002
    3.4020974381289726e+000 -4.0825169257547667e-003 1. 0. 1. 0.
    3.5436976592843078e-001 -2.2738726647074308e-002
    1.2394825414122598e-001 -5.1905397225874068e-002
    5.7706483627069961e-002 -9.9988024180624122e-002
    3.3587353790810542e-002 -1.6843162263323730e-001
    2.1636815134268017e-002 -2.6031071981245063e-001
    1.5448413568205534e-002 -3.6983708061131620e-001
    1.2174356454018282e-002 -4.9009799512089147e-001
    1.0449052992553004e-002 -6.1537067921304456e-001
    9.5637224340296180e-003 -7.3897799359204341e-001
    9.1617488731368553e-003 -8.4317590464230574e-001
    9.0462563769141725e-003 -9.0195141353546182e-001
    9.0738577911196883e-003 -8.9980608323712019e-001
    9.2695563858204554e-003 -8.3974857905988531e-001
    9.7197871775051570e-003 -7.3465553413096107e-001
    1.0637555873087607e-002 -6.1257571084840612e-001
    1.2242464956319374e-002 -4.9207118796130972e-001
    1.4900760471377032e-002 -3.7992816658281020e-001
    1.8951479783046236e-002 -2.8881739331366080e-001
    2.5040927583794417e-002 -2.1344093709719539e-001
    3.4772498014742532e-002 -1.5366778231001738e-001
    4.9488756807815740e-002 -1.0912600801168756e-001
    7.5483885452548014e-002 -7.4098756154493753e-002
    1.3956777504971854e-001 -4.3317185116264312e-002
    3.3370543946177528e-001 -1.9343791974134241e-002
    1.0817138996367865e+000 -1.0402482001507098e-002 1. 0. 1. 0. 1. 0.
    6.5316724493651523e-001 -1.0352700832243766e-002
    2.3527088699057305e-001 -2.8750102390248028e-002
    1.0589559191438495e-001 -5.7568373617723469e-002
    5.9537456219121085e-002 -9.5310536788380001e-002
    3.6544894002382616e-002 -1.5360976204178156e-001
    2.4435116732738491e-002 -2.2342452610552213e-001
    1.8040449598609017e-002 -3.0357777033971306e-001
    1.4347328131871021e-002 -3.8847997348318075e-001
    1.2340002153670652e-002 -4.7019583239547175e-001
    1.1332497678375531e-002 -5.3312356540700145e-001
    1.0976936830697366e-002 -5.6650598866125268e-001
    1.1043147742482542e-002 -5.6278365603933089e-001
    1.1601952764605759e-002 -5.2716469557117129e-001
    1.2738150523733418e-002 -4.6805739652434009e-001
    1.4423444732045322e-002 -3.9580504525709581e-001
    1.6997044748378556e-002 -3.2478944599478732e-001
    2.1107963135629754e-002 -2.5570503161948921e-001
    2.6973584154826809e-002 -1.9461171231865995e-001
    3.6514784921153232e-002 -1.4457420509781937e-001
    5.1060803624541448e-002 -1.0177354277104227e-001
    7.5086963606358748e-002 -7.1425222681155323e-002
    1.1955398329308130e-001 -4.7777756856691722e-002
    2.5292947381802755e-001 -2.5752435925905506e-002
    5.1297176906466124e-001 -1.1379423743751069e-002
    2.4583835782087951e+000 -4.7528749178703368e-003 1. 0. 1. 0. 1. 0.
    4.2538092194313197e+000 -6.6643011104424010e-003
    6.1654432262170566e-001 -1.0964213203956000e-002
    2.1602544608191854e-001 -2.7604451585167823e-002
    1.0864826383686564e-001 -5.1553601190592747e-002
    6.1737350291149698e-002 -8.6771845834210895e-002
    4.0364909928613746e-002 -1.2839203275243580e-001
    2.8612152561722906e-002 -1.7577589804768851e-001
    2.2694195330940446e-002 -2.2305443764921434e-001
    1.9225169603306887e-002 -2.6664028561813097e-001
    1.7635987363975612e-002 -2.9484431541339895e-001
    1.6989234794794677e-002 -3.0750543293969690e-001
    1.7168678155634391e-002 -3.0518012168766356e-001
    1.8296930547594088e-002 -2.8923177911951814e-001
    2.0057933343472379e-002 -2.6323129112972693e-001
    2.2263524117221829e-002 -2.3372358935880061e-001
    2.5802018189541493e-002 -2.0102782405108269e-001
    3.1346829126865844e-002 -1.6369105191188499e-001
    4.0373375387709659e-002 -1.2766599609265630e-001
    5.5556842332466098e-002 -9.3965139331644326e-002
    7.9579095443036790e-002 -6.5683259060425186e-002
    1.2393037386965705e-001 -4.5926531049863738e-002
    2.0540333524789875e-001 -2.8718809656577044e-002
    5.0190948322325490e-001 -1.5693036508780435e-002
    1.5912073332956527e+000 -5.6753061554211609e-003
    2.3552982263969806e+000 -4.0825169257547658e-003 1. 0. 1. 0. 1. 0.
    1. 0. 6.4460793564548942e+000 -4.0825169257547658e-003
    4.2655553896960768e-001 -1.5121393856472593e-002
    1.9235291492922035e-001 -3.1369554543040350e-002
    9.9074653779864116e-002 -5.3330234885471187e-002
    6.6059337903862758e-002 -7.9228266914997791e-002
    4.6793070342535159e-002 -1.0837665033583997e-001
    3.8155093701435369e-002 -1.3397906785967686e-001
    3.2475493672729311e-002 -1.5751318066969958e-001
    2.9280715938901667e-002 -1.7510551348168438e-001
    2.8337019777137335e-002 -1.8262689734335766e-001
    2.8843043729560394e-002 -1.8053534074685540e-001
    3.0495643608517826e-002 -1.6987649098197535e-001
    3.4411445280974971e-002 -1.5315731360838736e-001
    3.8312780160134272e-002 -1.3543312368073065e-001
    4.4941565784027020e-002 -1.1648029922513764e-001
    5.5227542355114533e-002 -9.3951254136442341e-002
    7.1958047886264295e-002 -7.2576887098086171e-002
    9.6920183237295565e-002 -5.2364359666723509e-002
    1.5261325299611461e-001 -3.6382999514273727e-002
    2.8569172361868639e-001 -2.1503063731033129e-002
    8.0531623469345792e-001 -1.3019279127544236e-002
    8.6984809647906935e+000 -4.4942151651418587e-003
    4.1517121278862037e+000 -4.0825169257547667e-003 1. 0. 1. 0. 1. 0.</input_scale>
  <output_scale>
    5.2631578947368418e-001 4.9999999999999994e-001
    5.2631578947368418e-001 4.9999999999999994e-001
    5.2631578947368418e-001 4.9999999999999994e-001
    5.2631578947368418e-001 4.9999999999999994e-001
    5.2631578947368418e-001 4.9999999999999994e-001
    5.2631578947368418e-001 4.9999999999999994e-001
    5.2631578947368418e-001 4.9999999999999994e-001
    5.2631578947368418e-001 4.9999999999999994e-001
    5.2631578947368418e-001 4.9999999999999994e-001
    5.2631578947368418e-001 4.9999999999999994e-001</output_scale>
  <inv_output_scale>
    1.8999999999999999e+000 -9.4999999999999996e-001
    1.8999999999999999e+000 -9.4999999999999996e-001
    1.8999999999999999e+000 -9.4999999999999996e-001
    1.8999999999999999e+000 -9.4999999999999996e-001
    1.8999999999999999e+000 -9.4999999999999996e-001
    1.8999999999999999e+000 -9.4999999999999996e-001
    1.8999999999999999e+000 -9.4999999999999996e-001
    1.8999999999999999e+000 -9.4999999999999996e-001
    1.8999999999999999e+000 -9.4999999999999996e-001
    1.8999999999999999e+000 -9.4999999999999996e-001</inv_output_scale>
  <weights>
    <_>
      -2.4205505044311306e-003 1.4350020023881954e-003
      6.4644512343053386e-004 4.8633238430626955e-004
      3.7031664159510754e-004 -1.6347347408353825e-003
      -1.2924630049669246e-003 1.7709373011530339e-003
      7.3201703133273985e-004 8.4176117600069666e-004
      -2.2103004689572893e-003 2.5701767177842448e-003
      -4.6055566270852285e-004 -1.2959532608692174e-003
      1.2146696274049592e-003 1.3501453984548978e-003
      1.2006486140541946e-003 -7.9047858364686484e-004
      5.2702745043081700e-004 1.4969797402949717e-003
      1.8790840525207588e-003 -8.0425485038962896e-005
      -2.1396785201270195e-003 3.8027502702400544e-004
      5.4070604485474824e-004 1.9483366631563347e-003
      -1.1016644708152256e-003 1.9584281285844650e-003
      1.8217483075673349e-003 3.5326222553837576e-004
      -2.4665188888353640e-004 -1.5093692338370161e-003
      2.4117844440002967e-003 -1.0806241320293882e-003
      -5.1099068755931939e-004 1.1185571773340256e-003
      2.2493344026269821e-003 -5.7268389394363574e-004
      1.0421095318872201e-003 -4.2355703764858566e-004
      -6.8650041093578490e-004 -5.9625754962180889e-004
      -2.3240753129875041e-003 2.4844909353482392e-003
      -4.5812788503573639e-004 -1.3234199368159457e-003
      -1.3117890958410138e-003 -1.2971892833947409e-003
      1.9286432407072259e-003 2.4776955337968321e-003
      4.4171985651576075e-004 -6.4402036669152440e-004
      -1.9063480179137810e-004 -6.2389818836504937e-005
      -1.3084339282737141e-003 1.2973360679489304e-003
      2.4794315242453327e-003 -1.6896887634146917e-004
      2.3502187914656940e-003 -1.0219549636833831e-003
      1.7979035016160393e-003 -2.3143435270049804e-003
      -6.7635147751573383e-004 1.7444478761288152e-003
      4.0994780195165853e-004 -1.1371349919335483e-003
      -2.1511456119164040e-003 2.5932848588354198e-003
      -1.2192245718567042e-003 6.2259539968795340e-004
      -2.4739335763265301e-003 -5.5506389869876402e-004
      9.3319818898351112e-004 2.1824289240875705e-003
      -2.4770198212941850e-003 1.8768121412062618e-003
      -1.7568050742993696e-003 1.5740954205610838e-003
      7.9169482570736166e-005 -1.6393361948915856e-003
      8.5506088794419836e-004 -1.9247983747517560e-005
      6.6870247944575878e-004 -4.2905209528778420e-004
      -3.3062849336926858e-004 -2.3421222666677173e-003
      1.2299060377926766e-003 -2.4927376995615520e-003
      -1.7246591510148518e-003 -1.2900388111961947e-003
      2.5464509944050323e-003 -1.7040511063194179e-003
      1.5449500455183046e-003 9.8159894791508451e-004
      -1.6395223755152628e-003 -6.2404130075466161e-004
      -2.2485511052531527e-003 1.8022481891010835e-003
      -4.4152206997778156e-004 -1.8918223063722698e-003
      5.1696284291902759e-004 -1.1462587045603955e-003
      1.3271121066285687e-003 2.0349253709197814e-003
      -2.0789439996259971e-004 -2.6278472881858567e-003
      -6.2137547830144280e-004 -5.6314481290179158e-004
      -5.8884356465172384e-004 1.1347947913265721e-003
      1.8158400495619021e-003 1.2053427000363397e-003
      -3.3871773124435558e-004 1.5782343508407672e-003
      2.3643370250245712e-003 1.4576160908754509e-003
      1.2876331728093708e-003 -2.2223573664666742e-003
      -1.2420822153991372e-003 1.1362399353808165e-003
      1.7100964781361510e-003 -5.0338429278175907e-004
      -3.0546605958209138e-004 4.3034523465551626e-004
      -6.4746045629228421e-004 -1.6978176696383109e-003
      -8.7716089684717268e-004 1.3099967938766299e-003
      2.5309688048468135e-003 2.2139388332729913e-003
      1.2271952495767201e-003 -1.3760202161781077e-003
      2.2781054343213652e-003 1.1187243823972766e-003
      -5.9168778960385607e-004 9.0443563466739970e-005
      1.1737100848109752e-003 1.6946094836335348e-003
      1.4360221092004171e-003 1.5096901934200362e-003
      1.2055304274241829e-003 -2.3970962661184411e-003
      1.1189925039224962e-005 2.4339091520092721e-003
      6.8246957020225065e-004 -1.9466637872566574e-003
      1.9128338834277757e-003 1.1872493140987470e-003
      -1.6671804626521374e-003 -9.2280886061430151e-004
      -9.0378716211687784e-004 1.5028303414525847e-005
      1.5830882291244469e-003 -2.0735257460117373e-003
      -1.3935019467597616e-003 4.7332415432493305e-004
      2.0341573810042654e-003 1.5534700032835617e-004
      1.6897684656261975e-004 2.0980553297524130e-003
      -1.2725018011645519e-003 1.5074175020667185e-003
      -1.1927308437742850e-003 6.3270803180099126e-004
      1.2009875370347731e-003 -1.4028178347273699e-003
      -1.8407066614731700e-003 9.7811846455308940e-004
      -2.5555596028841446e-004 1.1701808567341364e-003
      7.0336764253263877e-006 -1.0000431699142614e-003
      -2.2141343502134940e-003 -1.6687057698110078e-003
      1.1007261996600771e-003 -1.6939208097205450e-003
      3.5574447253273496e-004 -2.6434521257609127e-003
      7.4932379401512360e-004 -1.0962931057807044e-003
      2.0796859914649882e-003 -1.3826350646334250e-003
      1.2133118845778682e-004 1.2703957711136737e-003
      -1.9114526515396119e-003 -1.3823455460982696e-003
      2.3022513274066556e-003 2.5358567994682784e-003
      -1.5442369473697430e-003 1.7981362358265537e-004
      4.9164853528702494e-005 -1.8031647956547069e-003
      -2.4879459553097151e-003 2.1383652794560544e-003
      -1.7063002883048932e-003 -1.2903812449038034e-003
      2.0691899488953155e-003 2.3874476647723678e-003
      -1.2440421304832857e-003 1.5220685602870521e-003
      -1.2804791524286005e-003 6.7518982672510366e-005
      2.2473935682637883e-003 2.5395760880831206e-003
      2.0356583424529263e-003 -1.6138746992204096e-003
      -1.3125068490776859e-003 -2.4967956905256933e-004
      9.9626523151477467e-004 -2.2087560357629669e-003
      -1.1333992639877570e-003 -2.4273224828371152e-004
      7.7630524580477305e-004 -1.1719426692489087e-003
      -2.1526167959436096e-003 6.9756280721370938e-004
      -1.7932330600998283e-003 2.2032823546913132e-003
      1.6967791950376206e-003 -4.6670675607554966e-004
      1.9657832172314212e-003 4.7572160320977859e-004
      2.4196172310331802e-005 -1.8023716354937927e-003
      -5.5313062079023116e-004 -7.7810070075995657e-004
      7.8924255296625189e-004 -1.8539894772010110e-003
      5.8732082178827090e-004 -1.4364542198512952e-005
      -3.7005197919411916e-004 -1.3051920236366695e-004
      5.1243703799553448e-004 -4.5621173344591185e-004
      -2.0872351248095214e-003 1.5649932360349626e-003
      3.6981424496011366e-004 7.2743027414240500e-004
      2.5460278507528199e-003 2.5365933194760764e-003
      2.5158350421405724e-003 -2.3615546120955722e-003
      -1.2583764613015537e-003 -1.6633140146560046e-003
      -1.8493254841341802e-003 1.9246471609057954e-003
      -1.5308133917483928e-003 8.5661101783838774e-004
      1.1633602907073620e-003 1.1636892052986827e-003
      2.3952945647002163e-003 -2.2650504756487467e-003
      2.5287807167435040e-003 -1.3288081774388873e-003
      -7.6078269073251144e-004 -2.3974205932407581e-003
      -6.1567097556772905e-004 -2.4550451659969101e-003
      -2.0194665297914079e-003 -4.5393484599494074e-004
      2.0670526686705610e-003 -1.4286995200401475e-003
      1.5193755833401176e-003 1.6001437509212948e-003
      6.6061854525575404e-004 7.5144454020521138e-004
      -1.5832582881968548e-003 -8.5068829274626879e-004
      2.3305822256111386e-003 -1.2878606820544620e-003
      4.1478542558612589e-004 -1.2017254463562359e-003
      -4.4069246579095638e-004 -1.5635863704909340e-003
      -2.0983871093812170e-005 1.0026498544624348e-003
      1.1317690796402345e-004 -5.1452835386936024e-004
      2.1118045128503617e-003 1.0621802801247557e-003
      2.5321294644884951e-003 -1.1390643432238222e-003
      -2.0036757981347496e-003 1.7314170889499391e-003
      6.9629191236917293e-006 2.0688158345708263e-004
      -1.2167102806306606e-003 -8.4588001560312830e-004
      -2.3932734020564923e-003 -1.3774006877800213e-003
      -1.7264958234849092e-003 -2.4408056547225868e-003
      -1.3030197702342545e-003 1.4223462354478059e-003
      -1.8150743848009752e-003 1.0607679553529001e-003
      1.1457832214779072e-003 -7.8212374879075978e-004
      2.3380798146733057e-003 1.8903937641332677e-003
      -2.4637757559718390e-003 -1.7327611006138013e-003
      -3.2378306990859938e-004 1.6180144935055938e-004
      -1.2961637534946498e-003 -1.5411780484630919e-003
      -2.1537375971565132e-003 1.2317466357031616e-004
      1.5599706515948475e-003 1.1229033724529734e-003
      1.5818133332635399e-003 -1.9540008608226636e-003
      -2.2558202760087150e-003 1.9116751418444995e-003
      8.3133094378275629e-004 -2.2891370683491056e-003
      2.4031849968570462e-003 -1.3613195690988339e-004
      2.4622165196933540e-003 2.2469265872351492e-003
      2.4494425977865169e-003 -2.9295322001577306e-004
      1.6263391547587558e-003 -1.6648528357311662e-003
      1.8727763036764215e-003 1.8520790954860090e-003
      6.4534836527017534e-004 -1.7195487636912942e-003
      -4.6828258247767459e-004 -6.0614827423209833e-004
      4.4961056154226058e-004 -2.0485627850883813e-003
      2.2165655611570000e-003 -1.6492413479823576e-003
      1.4803770786422232e-004 -3.0716332438940645e-004
      1.2275297819493308e-003 -7.9261346353845356e-004
      -8.7650038045191661e-004 1.7467783934365863e-003
      2.1873663002375428e-003 1.7071729699708561e-003
      1.9790759716433563e-005 -1.6041026222094910e-003
      1.5395465515133505e-003 -2.2511662081614524e-005
      1.5536478704625903e-003 1.4058071744813801e-003
      1.2250369605975531e-004 5.7198692410962270e-005
      -2.0377801436181173e-003 -4.7540037857234395e-004
      2.5022676434635475e-003 3.3698534705258745e-004
      -4.5652052671102329e-004 -6.4871204061360674e-004
      -1.4368690111675427e-003 -1.8460580862454084e-003
      1.6788573759091644e-003 -2.3169259312089808e-005
      1.0241894484573474e-003 -5.2059452859064444e-004
      1.9369844312283346e-003 1.3613665550706595e-003
      -1.4609165515413313e-003 1.6353555721958823e-003
      -1.7484303080780345e-003 -9.8769956475628002e-004
      1.9895852174061689e-003 1.3500322622759257e-003
      -4.2483851452518773e-004 1.1806367047931671e-003
      -2.1505342640950440e-003 -1.4969507753817850e-003
      -1.0560767198640789e-003 -9.2839625224441541e-004
      -5.2891810164221848e-004 3.8078254351640633e-004
      -1.8593186183068571e-003 1.4254308029464551e-003
      -1.5216629997243951e-003 -1.8371929884189002e-003
      -1.2258620193153433e-003 3.8351729596315610e-004
      2.1099175712824109e-003 1.7863209992656887e-003
      -1.2247747008538195e-003 1.8162513154208419e-003
      3.5836765706962333e-004 -1.4583466846682103e-003
      -9.4678862064250565e-004 -2.0185694331992534e-003
      5.0007426908329296e-004 3.3419538479413874e-004
      -2.2175583327624817e-003 -1.0735187867801201e-003
      9.4736631819714132e-004 8.3970004763847137e-004
      6.2358923090343843e-004 9.6438103725346653e-004
      -2.2164555538606943e-003 5.4420167816968225e-005
      -1.8052510358768502e-003 1.9240928100986337e-003
      -2.1490698847570181e-003 -2.4642684111729599e-004
      -8.7907366447753643e-004 4.6436471972906502e-004
      -1.1994013800273768e-006 -2.1401963432074326e-003
      -6.8970606255694563e-004 3.8017699352059709e-004
      -2.0592862362326545e-003 -2.5428084608797009e-003
      1.4869682197062102e-003 -1.3405091543033452e-003
      1.6968982477163824e-003 1.7704015934604858e-003
      6.4125698621222916e-004 -1.9799294755912370e-003
      -2.4456948771803062e-003 4.5459415416279625e-004
      1.2540231720655629e-003 -9.8573991260705852e-004
      -5.0831974461482338e-004 1.4804685750113480e-003
      1.4618755857651791e-003 5.2373276336358714e-004
      1.0008846415550826e-003 1.0255819283968911e-003
      5.8217573122884710e-004 -1.4314002514243861e-003
      2.4823145945763680e-003 1.3654473545955429e-003
      2.1318104993299112e-003 -2.0792807229852582e-003
      1.4158614666938980e-003 -1.4027274169071838e-003
      -2.2045368648913638e-003 1.4152284822082494e-003
      2.0776017304350481e-003 1.8025744156330470e-003
      9.9866222355474567e-004 -2.3696410317319218e-003
      -2.2997048297506593e-003 -4.1220031205319632e-004
      1.3155909968711251e-003 -1.8512591218222370e-003
      7.2309700106338800e-004 -6.7249481941697139e-004
      -9.3880677162632526e-004 5.4085995937998971e-006
      -1.2568627966251663e-003 2.3540797354095421e-003
      1.9258483297359360e-004 2.0414061453407719e-003
      -5.5441016609146411e-005 1.6725815764287602e-003
      -1.5141144667079401e-003 -8.0722320790434969e-004
      4.8796252411046546e-004 1.2086175359074178e-003
      1.2514949110977117e-003 3.7731660468528301e-004
      -2.4826689300271616e-003 1.2886341754009213e-003
      -5.3360375401134501e-004 -1.5712886999594831e-004
      1.1766592042732685e-004 6.8167344273453528e-004
      1.3105015618259488e-003 2.4140224040915858e-003
      2.0326166271387794e-003 3.8221501712223189e-004
      1.8753598136256482e-003 1.5706139240755106e-003
      1.4080165751850481e-004 5.4730393808934119e-004
      1.1817469450253414e-003 -7.6467872788588717e-004
      2.2710444851607738e-003 1.4284207686235297e-003
      -2.1640394359977761e-003 2.4457893471332356e-003
      1.0302372038769772e-003 -6.6290070468812839e-004
      -1.4451298252028944e-003 1.1914342813724884e-003
      -1.0918813788870273e-003 -9.1364733944037930e-004
      -2.4583099820259641e-003 -6.8171030556053613e-005
      1.2496583613574785e-003 6.3776170489075507e-004
      -3.8683981927118051e-004 -1.8659025885716541e-003
      -1.9792176715292720e-003 3.6679595765748348e-004
      -1.6397670071395846e-003 2.2832643959672383e-003
      -1.6444973995184962e-003 -4.3799719571041755e-005
      -1.9234802182087976e-003 1.9955441270866278e-003
      7.8379081026646973e-004 -6.4226866380196466e-004
      -2.2320138745057973e-003 1.1573243959949119e-003
      -1.6460949203925604e-003 -2.0755162909711178e-003
      -1.2109553474629624e-003 -9.6223127535712103e-004
      -2.4556823726113244e-003 -2.0884822605287236e-003
      8.3647399913376011e-004 -1.1715070707087234e-003
      2.4278281631352622e-004 1.1581771796937818e-003
      -4.0330837013380296e-004 1.5824098313722309e-003
      -1.7101300713433915e-003 9.8356730709377085e-004
      1.6734374921022789e-003 -2.1473635452652425e-003
      -1.1191184655680651e-003 -2.3292075670681387e-004
      -3.0185425824921211e-004 -2.4501754057127340e-003
      1.5519678781633105e-003 1.7895093487173177e-003
      2.2824508221209183e-003 -6.9918115323958703e-004
      2.0545364196580111e-003 -2.3435375089882133e-003
      -1.8624521674573851e-003 -7.1530963808762377e-004
      1.1792094761575828e-003 1.1042226654290843e-004
      -2.2926958353979734e-003 1.0962807321928645e-003
      1.6831733648141063e-003 1.6013711343898489e-003
      -1.9381831863357066e-003 -2.3382058752455916e-003
      -3.0810437302436147e-004 -1.8981676633092390e-003
      -2.3042132699242283e-004 -2.0610169473894739e-003
      2.5842750669696794e-003 1.4309275739700636e-003
      1.5143113665246092e-003 9.0615531771475757e-004
      -1.3587519638244719e-003 2.4651313105914078e-003
      1.5240451687102117e-003 -2.4282771561775010e-003
      1.6318612250107445e-003 3.3842549473152013e-004
      3.0722036925785279e-004 -7.3227304338553559e-004
      2.0044199844071438e-003 -2.0345171809719943e-003
      2.3343011015022606e-003 1.1342255738478880e-003
      4.9593631029242922e-004 8.5410644862180007e-004
      -1.6293632787721685e-003 -1.3219935808418687e-004
      -5.1521000701130115e-004 -1.9641604846128209e-004
      1.4276188815836748e-003 2.3182068196054752e-003
      -2.0848562959408495e-003 -1.1070846748979814e-003
      1.7618235901167869e-003 -2.5618360897068618e-003
      2.2319216860293978e-003 -1.4248873289222749e-003
      2.5075396377822925e-004 1.0416372922339577e-003
      1.6182438616021888e-003 1.8310740123394638e-004
      -2.4202149852918923e-003 -1.4834529333748094e-003
      -2.1989756480028512e-003 1.6468337552542516e-003
      -9.1285134929262543e-004 1.5151216860828597e-003
      -3.0812673440370157e-004 1.5911389626931650e-003
      -6.5570337213540647e-004 -2.9035718609049234e-004
      -1.1680406412625435e-003 -1.1102282096722368e-003
      -1.2260975208491212e-003 -1.9098697270013918e-003
      -2.1367898873433620e-003 2.3938318505867615e-003
      1.7692072442782559e-003 -1.5633724628327972e-003
      1.9480833401877196e-003 4.9223404527388764e-004
      -2.5238726703305072e-003 -1.3079980521101626e-003
      -2.4689822304553876e-003 2.2754617926418891e-003
      -1.0526081234787173e-003 -3.6487051617187715e-004
      7.4661993505201955e-004 8.8176955885737579e-005
      1.4204778018725263e-004 2.2194126952998438e-003
      -1.1465519056710516e-003 3.3471743796456343e-004
      -1.3690072539198063e-004 -1.5037947783071259e-003
      -1.2131881101341631e-003 -6.5869390660468262e-004
      2.5136147601643034e-003 6.3911516776470122e-004
      -6.0170081568829549e-004 -1.5975527086024247e-003
      -1.5081125850617896e-003 -1.2483711438428058e-003
      1.6958192197941697e-003 -1.6874047182942665e-003
      2.0406328032924535e-003 5.4109352823225913e-004
      2.3572418043326508e-003 -6.6461234673784175e-004
      -2.2344712809501109e-003 1.7370420343524328e-003
      -2.4953692649923817e-003 -2.1902626961608791e-003
      -1.9654842893343217e-003 1.1293036224160132e-003
      -8.5480809002626572e-004 7.9639741538591817e-004
      -1.9809337215259256e-003 -2.4630292053501096e-003
      1.2599241735902565e-003 8.3371238203419936e-006
      2.1592955624610472e-003 2.1999471951598660e-003
      1.1908400715213755e-003 -1.1157910434807460e-003
      -2.4904038560582875e-004 1.9828792170721488e-003
      -1.3476219811589117e-003 1.6144009070914120e-003
      4.8018778456202432e-004 2.3727915737910585e-003
      -2.1034541822378084e-003 -2.1415394661600902e-003
      -2.0942570282149673e-004 -1.2922274163676011e-004
      -9.7633837759629482e-004 1.0675545593480118e-003
      2.4247779846677262e-003 1.6104579019445920e-003
      1.0372634287889719e-003 -1.3263478651929445e-003
      4.8783615052579307e-004 -2.3871620269005785e-003
      2.1658669210854781e-003 4.0543591949549873e-004
      -1.4967398316167893e-003 9.9766840101011352e-004
      9.5842339174919401e-005 -1.4131016345175648e-004
      -1.8496277487055810e-003 -3.8688260955722497e-004
      -7.2722988927389869e-004 5.3577705431732210e-004
      6.4167778067824818e-004 1.3213568390607301e-003
      -2.8343058822535193e-004 -2.2457459230124043e-003
      1.0844417227544930e-003 9.4519626124856611e-004
      2.7932098715385535e-004 1.6473504067753258e-003
      1.7313164229988214e-003 -1.9908499722539157e-003
      -3.4302859497689360e-004 -8.8577477050569438e-004
      1.1383949943254825e-004 -8.2428983473605184e-004
      2.4935082164892781e-003 1.6620632511049668e-003
      -1.7924774336673535e-003 1.4014582207323013e-003
      1.9521544230356070e-003 -4.3369631488864012e-006
      -2.2558503169665257e-003 -6.3522439460446671e-004
      1.1794046097692999e-003 -5.8840801530963866e-004
      -5.7352567867470278e-004 -2.0118437580888137e-003
      -1.3476482375602335e-003 1.3548378242118010e-003
      -1.7252890213117569e-003 -9.4683011213765925e-004
      1.6393767554926939e-003 -1.6294771394427603e-003
      2.5219725353717230e-003 1.6091874831158180e-003
      1.7540571965168929e-003 -1.3138946119233880e-003
      -1.3818338026690637e-003 1.2919432192977096e-003
      5.2065326746362215e-004 -1.4259099601866515e-003
      1.4388457219316937e-003 2.1229797614214863e-003
      2.3265137146770715e-003 -9.4943249687301544e-004
      -2.2401223218766913e-003 -1.0299216535163650e-003
      -2.3407606355034072e-003 -1.5261092614926182e-003
      -2.3265652824038833e-003 4.7096330133939405e-004
      -2.2141228230922556e-003 -1.0368395841838908e-003
      -2.3902130000099330e-003 -6.7511542148368335e-004
      -1.2864807580300723e-003 -7.2476447770544576e-004
      -2.1492792608209699e-003 -1.8627811264475247e-004
      -2.3201687831470703e-003 1.1290287380168712e-003
      -1.8669768818578415e-003 2.2362722195235735e-003
      8.0332181871714059e-004 -2.6364440904096234e-004
      -1.0969783726154777e-003 -1.2612401614405214e-003
      -2.3146101162683252e-003 1.8099731669868398e-003
      2.3059498799041142e-004 -1.4460718159596216e-003
      -4.4575466122235706e-004 -9.1976276145972413e-004
      -3.3430557980620768e-004 1.3008530129872023e-003
      -6.2276622778126517e-004 9.5453722034921510e-004
      -2.1125038787852216e-003 -2.0708700987723499e-003
      1.3896253439127217e-003 -1.6220540185531104e-003
      -6.1094991801359757e-005 -2.4033101651940400e-003
      2.0200620487014569e-003 1.3401661262286558e-003
      1.7378402962273996e-003 1.2622001108558072e-003
      2.1219500594079161e-003 6.8735298374746859e-004
      -9.4233822913175277e-004 -1.5570917301707494e-003
      9.4202241748686814e-004 -8.2246624124944297e-005
      -2.0779578190614528e-003 -2.3425124091877416e-003
      2.4800072015925679e-003 -3.7517521843828569e-004
      1.5333096958438271e-003 -2.0463205170469185e-004
      -9.6729401694072340e-004 1.0278042168776680e-003
      -2.1471447447724110e-003 2.2219113751527934e-003
      -7.6046705465305554e-004 -1.4477190878338095e-003
      2.2969418109218087e-003 -1.0498357161568637e-003
      7.5893157523197209e-006 -5.1427017222484869e-004
      -2.0741507888035832e-004 -1.2750270045966054e-003
      -1.0205244621941986e-003 -2.2674548856424664e-003
      -1.3183111555557783e-003 -2.1033634975185676e-003
      -2.2761261064939906e-003 -9.1252804572785587e-004
      8.5654489175597992e-004 -1.9076068142659392e-003
      6.5237747732591148e-005 9.3643072674621847e-004
      -1.3167067929967476e-003 -1.8707731569319669e-004
      2.1096796350695396e-004 7.6982404271420371e-004
      1.7329578598765589e-003 1.5787247828741168e-003
      -1.5179642873671131e-003 -8.7803738569985153e-004
      4.3472526194037012e-004 5.6108848391255299e-004
      8.1344258797895409e-004 -3.0913411210118117e-004
      -1.3031592582726976e-003 8.9551951712634685e-004
      1.3912398855951233e-003 1.0562222524353839e-003
      -2.4191583006407012e-004 -1.3910501813282044e-003
      -1.1338867673053499e-003 8.0296326768569399e-004
      1.8205861206110248e-004 1.5261867539824105e-003
      -2.3428463568896710e-003 -1.2240567201625651e-003
      -9.6631872044087251e-004 2.6675942656919824e-004
      -8.5755558735715973e-004 2.1016492322200953e-003
      -1.2781205696404214e-003 3.2698463444199926e-004
      -5.4219878123946041e-004 -2.4234602196634945e-003
      -1.5195794717596999e-004 -1.1159745783324152e-004
      -1.2754761472135786e-003 1.8740413463363139e-003
      7.1723437773865557e-005 7.0681783326243908e-004
      6.2635235000914981e-005 -1.9164362505714274e-003
      1.7087481195290730e-003 -2.1696413633305617e-003
      -2.9219060401943685e-004 1.1382689203266938e-003
      -1.1539536179386771e-003 -2.0406751141909523e-003
      2.6531530683694866e-004 -1.8971258327623304e-003
      -7.3802756998401673e-004 -5.6600145153860144e-006
      -2.3373421163277400e-003 6.1385090351922774e-004
      -2.1614650108792610e-003 1.7154924714512978e-003
      -3.2312846534339213e-004 2.1057069694721407e-003
      -3.7232250150414617e-004 1.8566350946428575e-003
      2.2811978958039861e-003 -1.0426359743104729e-003
      1.0763833965110746e-003 -2.4059253182243359e-003
      1.9347237773982432e-004 2.3471026210998363e-003
      5.9245486328478314e-004 -1.2721968826263702e-003
      -1.4765407922161216e-003 4.7361676204731853e-004
      2.0528567978636831e-003 2.3960840416291378e-003
      2.2891213066334138e-003 1.2260727197541549e-003
      4.7076443270880312e-004 -1.8989075810434202e-003
      1.5614734726158710e-003 1.5756456005196256e-003
      -1.9407772307120661e-003 -1.8114495270365185e-003
      1.7837455557398541e-003 -7.8965220393009000e-004
      1.2194176206592926e-003 -3.9373441084868441e-004
      -7.0036304922911543e-004 1.7669639648478135e-003
      -7.6998449352049783e-004 2.3700409985625667e-003
      -2.3310014938941756e-004 1.9394414123851826e-005
      1.1251285611750094e-003 -1.1411157294395837e-003
      -1.8065037803539484e-003 -1.3750306883229082e-003
      1.5184359208290611e-003 -2.5577932330219425e-003
      -1.5315560569063270e-003 1.2450623862970492e-003
      -1.6769463282852266e-003 -1.1407877696454607e-003
      -1.7450602488574770e-003 2.3707486576198195e-004
      2.2397168151562005e-003 2.4220829391889110e-003
      -1.1825633399235272e-003 4.6799572598169991e-004
      1.6521004652817952e-003 2.0649586365204982e-003
      1.8520543735109361e-003 1.4466576111475499e-003
      -1.0408105381045029e-003 -2.4429848070626158e-004
      2.1278611551909612e-003 1.1052344849717616e-003
      9.1089933745043311e-004 3.7423707290461141e-004
      1.0766520363299718e-003 -5.4924400659971080e-005
      1.4747365807939088e-003 -2.3342038998617810e-003
      9.3863755278867191e-004 2.0868864267757263e-003
      1.4353976223345937e-003 8.0670722930146273e-005
      -6.6601619693575488e-005 -1.1728615964104660e-003
      1.2641911193869706e-003 1.4600304651329560e-003
      2.4609058252736652e-003 1.2192572683549512e-003
      -1.4261947267697258e-003 6.6948891517977537e-004
      -1.4088055714047633e-003 2.1666629295697421e-003
      1.8462668773158160e-003 -1.5914993803691688e-003
      6.7238500974824689e-005 -1.0998054362592301e-003
      -1.1244515633596840e-003 2.2465617770209213e-003
      -1.3860609169086692e-003 8.8414290736526352e-004
      1.2418506404166746e-003 -1.6415465303808944e-003
      2.4166337702832010e-003 -2.1111835766581674e-003
      2.2585166705138405e-003 1.5041022026570572e-003
      -1.9402429626209854e-004 1.5635912823090561e-003
      1.0527846433361755e-003 -2.4169009030789610e-003
      -1.3854918430142484e-003 1.1361739990135213e-003
      -1.2725678100463907e-003 -2.2918120002442043e-004
      4.5706989180679627e-004 -1.2491618415399546e-003
      7.7696310751877891e-004 1.6452238744204136e-003
      -1.7248358245805401e-004 -2.0240745936171011e-003
      1.3772838039329447e-003 1.4563748305047501e-003
      -8.9460343635394412e-006 -8.8048899602689618e-004
      2.3318587350374203e-003 2.2810023990172744e-003
      -5.4024944613879249e-004 -1.8062263539025743e-003
      2.2589095719825567e-003 6.2317448038875340e-004
      -1.6378367687758216e-003 1.9693113426982930e-003
      1.6062785701707767e-003 -1.4651675207955888e-003
      -1.0536184707310462e-003 2.5578790769550616e-004
      -8.9609605955051329e-005 7.0863529884173976e-004
      1.1717752916543889e-003 -6.5315598326807719e-004
      1.0237435601995993e-003 -1.8723753304900521e-003
      -5.0490023417727335e-004 -8.7468650342374665e-004
      1.7086922934829211e-003 -1.1177371690212737e-003
      -1.0977192298165536e-003 1.1708706722467967e-003
      9.3807082562001153e-004 -2.0463162470105429e-003
      3.3340087556159629e-004 8.0738156914729627e-004
      2.3864595936154368e-003 -2.2633912999653308e-003
      -8.8443685462903025e-004 -1.0945426654387529e-003
      2.1114512972206503e-003 1.6292350416410603e-003
      -2.0214387742166955e-003 -1.5304206143414241e-003
      -2.5543792238464612e-003 -1.3190252779464999e-003
      1.3667392178958392e-003 -1.7589560372211733e-003
      1.6363905741839570e-003 1.3785901492832497e-003
      2.0083151546723349e-003 1.8272778278342235e-003
      6.9828899729658671e-004 5.1735722337835604e-004
      5.1785538133258347e-004 -2.2195795021714851e-003
      -1.9206163588961576e-003 -2.3564656836951659e-003
      8.2126803989862628e-004 -4.2084850458190711e-004
      -2.3587344326903787e-003 9.1357249180923600e-004
      1.9292145995443890e-003 -2.1951551430501085e-003
      -8.6467205170623806e-004 2.0450267767225462e-003
      -1.1554535384737091e-003 1.8222234801288639e-004
      -1.0240729083307129e-003 -2.4259810056627643e-003
      1.2909672784429216e-003 -1.4727425877345641e-003
      9.8566882800872960e-004 -1.7897816937535529e-003
      -1.5935451973514072e-003 -1.0374744319149859e-004
      -2.0618520102469022e-003 6.5600387690814999e-004
      -1.9672737562515623e-004 2.1460499370567288e-003
      1.1049065731680995e-003 -1.1124302738558074e-003
      -2.4493817607904389e-003 -1.9128838029790416e-005
      1.5226777457462066e-003 4.8162380028477479e-004
      -2.2248485088827374e-003 -1.3337644822310629e-003
      -1.2570264942768554e-003 -1.3471148801908305e-003
      -1.9327819353228107e-003 -8.3674110324846740e-004
      1.6038869237644995e-003 -2.3718096809756768e-003
      -2.3197604221525925e-003 2.1373903023772325e-003
      1.7335641348217687e-003 -5.4834811514299929e-005
      1.8489978706990979e-003 -5.9709966640714032e-004
      -7.5408931194511839e-004 -2.6701187113072674e-004
      -1.6205887633824940e-003 2.0358579351147518e-005
      1.4710876347898301e-003 -4.0469844855370448e-004
      -1.2499106254333717e-003 -2.0022857787331330e-003
      -1.6101205454131292e-003 2.1193049414988722e-003
      -1.0145529383584655e-004 -4.9366862534875374e-004
      1.8996068578570392e-003 1.2751935717241465e-003
      5.5986018710755094e-004 2.3401255253264319e-003
      1.8574524887066375e-003 2.5449263979385205e-003
      4.9174117610266280e-004 2.1159212455854250e-003
      -2.2518042367263066e-003 2.4168842712453172e-003
      2.0128130992059924e-003 -4.1407593537220707e-004
      -4.2911295418353003e-004 1.9337204557676676e-004
      8.1521574437030627e-004 1.9337108456058407e-003
      -2.0227188024618029e-003 5.3144872838818893e-005
      -8.3253476628240397e-004 -1.7613601221703166e-003
      -5.3310785367231958e-004 1.8644099487470393e-003
      -2.4323731400010648e-004 9.4286154477943979e-004
      -2.5086734848478748e-003 -1.2774683424536522e-003
      -2.0728466905956451e-003 4.9523821117368232e-006
      -5.3542046750893011e-004 -2.1120917059856094e-003
      8.8868961566093609e-004 -1.1822627199413681e-004
      -1.5608568662101197e-003 2.4843638094590916e-003
      -1.4643507096143977e-003 -3.0941395677795995e-004
      -1.2020835393391559e-003 1.2402720079093296e-003
      2.8467446622635289e-004 7.1301419407129364e-006
      -1.9520772735413894e-003 9.6478133724800226e-004
      1.6748590481547787e-004 -1.8426482634378873e-003
      -2.5044088343399019e-003 2.1328752650343042e-003
      9.7940098225204691e-004 -1.1246740974158590e-003
      -1.2147735505715627e-004 -1.9877965366416608e-003
      8.3164271816482465e-004 2.0051486555808354e-004
      1.0971990663864980e-003 1.7896879019800433e-003
      -1.1643265276362258e-003 1.4704769451938369e-003
      5.5558269047500654e-005 1.6323857113135344e-003
      2.4622543811438904e-003 2.1903342252888904e-003
      1.7804830544741793e-003 -2.3797625596339120e-004
      -8.2481057183995520e-004 -2.0514012269355376e-003
      -2.4228625125908812e-003 -6.5185124875874608e-004
      7.4441134276044952e-004 3.9274501889417248e-004
      -5.9630297485111508e-006 -2.0094444388413569e-003
      1.2786259815994892e-003 1.8483514612749267e-003
      1.0924476856528156e-003 1.3703479507249977e-003
      -2.2618816221256842e-003 -2.3716226246977214e-003
      -1.9177022292146152e-003 9.0703075697015916e-004
      6.5955289830785821e-004 -2.1405205958201765e-003
      -7.2486270088028117e-004 -1.0917630964900787e-003
      -1.9541590888534077e-003 4.5156899081024321e-004
      5.4002040559780588e-004 2.2391480353225472e-003
      -1.6010439034394876e-003 -1.1174760230132437e-003
      -1.4513431825391224e-003 -1.6545687068442430e-003
      1.1090023763992985e-004 2.1829173709937335e-003
      -1.2808192632084585e-005 2.1697119832870169e-003
      -7.6337168974958383e-004 2.2633557524947543e-003
      4.0524618451984639e-005 5.4523635759113750e-005
      1.4157782376254793e-003 -1.9231674831963266e-003
      -1.8932437268725808e-003 1.5073124817033645e-003
      3.7344011120402901e-004 -8.6869773231547463e-004
      -1.2680638710081300e-003 -1.3827853288151163e-003
      -2.4490457569583558e-003 5.2371653024836163e-004
      1.9584453219989749e-004 -2.5647546898701148e-003
      -1.2653929498345172e-003 2.4321291893376284e-003
      1.9017588273957724e-004 -1.2950321640435746e-004
      2.1116820088001718e-004 -2.5063244525518314e-003
      2.3174843074760293e-003 2.3703290141336010e-003
      -3.6058830986179390e-004 1.9146263822081034e-004
      2.2402937356027111e-003 -6.2038563732430443e-004
      -1.4608700166401033e-004 -2.5238414107063888e-003
      1.2232485752911701e-003 -1.8069679075870422e-003
      1.4890151317399774e-003 -1.5688944252391836e-003
      1.4129163617445123e-003 -1.6156236797334014e-003
      -2.2620988399443161e-003 -2.0706874204191542e-003
      1.4349816376438445e-003 -1.7463602319458989e-003
      2.1817553520688412e-003 1.4467103983496668e-004
      -1.1724437719222628e-004 9.8614374930735497e-004
      -1.7665636932215666e-003 -1.7985206166301598e-003
      -1.7483065489274576e-003 1.0416612453915328e-003
      -6.9465676803768140e-004 9.4447508393708576e-004
      -1.5267275218472484e-003 1.8295771591948728e-003
      9.6953962075818861e-004 -9.9392849179309999e-004
      -7.3097023780072177e-004 2.6675306304554583e-004
      -1.5464926200893063e-003 9.6547801613610827e-004
      -1.5578704392336204e-003 8.4205199240670523e-004
      1.1698925172979224e-003 -1.2388398128443323e-003
      1.9213094907484368e-003 -2.4497799371165523e-003
      2.0066934473987720e-003 6.2195149160357212e-004
      -1.5733874072776375e-003 -1.3696762914861133e-003
      -1.4945779303445945e-003 -8.2776287529063588e-004
      -2.4044493893098261e-004 7.9893859090071390e-004
      1.3099632069729372e-003 -1.2885111047884821e-003
      -1.5644851907123676e-004 -1.5504517786691951e-003
      -6.2628264378689893e-004 -1.9526103537071894e-003
      -9.8247045285828954e-004 -1.5996194427097578e-003
      -2.4940779379795572e-003 2.2683570538071353e-003
      -7.6993889664623313e-004 4.2094254399625320e-004
      -1.1305654065264263e-003 1.2487757615669366e-004
      -2.1604363927702477e-003 2.2931492808278692e-003
      -4.8341656376202434e-004 -1.4515095718522122e-003
      1.1619898678576424e-004 1.5481799146082201e-003
      4.2970252450648524e-004 2.3250424855989168e-003
      7.9994662472992648e-004 -1.2223202810220709e-003
      -1.6781065367827426e-003 1.6101113728099856e-003
      1.1868217938447743e-004 4.7767607185156567e-004
      2.3646008263025439e-003 -2.4435133001296312e-003
      7.4541986055243041e-004 -1.0804295122069107e-004
      7.7804291178180409e-004 -9.9777655654179997e-004
      4.1327737941031375e-004 -1.8922053427454541e-003
      -2.1389454383365951e-003 4.7413301363747706e-004
      -1.9107701627933960e-003 6.4507679697195416e-005
      2.1185345878680806e-003 -1.3643864915515436e-004
      -3.9973695293944403e-004 -8.5327728413601089e-004
      -1.2835694688563949e-003 1.0091674883811791e-003
      -1.8476756500716040e-003 -2.6134083375851090e-004
      1.9629841435056992e-003 -5.2619050335494209e-004
      2.1391098997138001e-003 3.0275713181691450e-004
      3.4308098103383555e-004 1.3250876641474588e-003
      2.1235827383093166e-003 2.3586199646172426e-003
      -2.0807983213429831e-003 2.6708545569179216e-004
      -9.9958582007922750e-004 -1.5609172498040815e-003
      8.8231673679818709e-004 -2.1961491974690425e-003
      -1.8156146129875729e-003 4.9862235128765695e-004
      1.8941612052239356e-003 -1.0064225655006310e-003
      -4.1393491328725336e-004 2.0745700979416756e-003
      -1.6492468407649779e-003 -9.5647146933105457e-004
      1.9180515120646908e-003 8.2584449829846364e-004
      -1.5492224255761247e-003 7.0034821644546238e-005
      -1.7575905650533306e-003 -1.3955618207883971e-003
      -2.4158287006353246e-003 -7.9009891507265972e-004
      1.9498814435534122e-003 1.2985831644835941e-003
      -2.4054687335014536e-003 2.2165943474402889e-003
      -1.3891500894396833e-003 1.3559683925886815e-003
      2.2013518536320577e-003 6.8136429760556330e-004
      -1.9453834900359551e-003 -1.0029452343067310e-003
      1.5739434032808529e-003 9.8355587241065684e-004
      -2.4530239158810849e-003 1.4142496924258593e-003
      4.4995950376675633e-004 1.5119488817913816e-003
      1.8796627376977077e-003 -7.3005498003465873e-004
      -2.5024999038385401e-003 -2.1546005375885995e-003
      -2.4687751391457890e-003 3.5616133900987353e-004
      -2.2217747371730554e-003 1.2166542653693391e-003
      3.7741490189208214e-004 8.5239821507323871e-004
      6.4711441140972981e-004 1.7296317881910293e-003
      9.9722878016396204e-004 -2.0980282385428583e-003
      -1.4014923590925559e-003 -1.3228081734773720e-003
      -2.3904234598502391e-003 -7.7946217987251041e-004
      2.2492507578801809e-003 2.0254984733364699e-004
      -2.1313963182419066e-003 5.8170334627368348e-004
      1.6404408646428521e-003 -1.9961738170406586e-003
      1.3571737433746012e-003 -6.1201349338752410e-004
      -8.1854986522521755e-004 -2.2105857557767413e-003
      -6.1118141094320985e-006 1.2631967823625257e-003
      -1.2802938993910222e-003 1.2691726212838133e-003
      -1.1731724701800213e-003 -1.9832346160225615e-003
      2.2440095339683555e-004 9.3721607194999701e-004
      -2.3697930921043318e-003 -2.0143640049977100e-003
      -1.6986369003300322e-003 2.1219462612830685e-003
      2.3618078691620816e-005 -1.0284744522251581e-003
      1.9578612319568790e-003 1.3053238120600923e-003
      -3.5369165357449769e-004 1.4943696029870738e-003
      1.9133473504181369e-003 -2.1955749064601223e-003
      7.9875814610183354e-004 2.4222092717799521e-003
      1.5819893478806355e-003 1.9211308311015607e-003
      -1.7470035080553775e-003 -8.3704328387911248e-004
      9.6829215606503757e-004 -1.4603417062884969e-003
      1.3796850696801959e-003 1.6993747350359690e-003
      -2.2622120024172699e-003 -1.1466820621767028e-003
      -2.1521404017176508e-003 9.4627474372113425e-004
      1.2842303202111602e-003 -2.9954362816229815e-004
      9.6586451299010936e-004 -9.7400932646314717e-004
      9.4142000896090298e-004 1.9720061243445630e-003
      9.0471949905660302e-004 -4.4613690737334527e-004
      -2.3253057272814223e-003 -1.9863786633084915e-003
      -1.7737650600805203e-003 -1.9399875338518141e-003
      1.8984349859532471e-003 -2.8335834694959416e-004
      -1.3536623360674866e-003 2.2124703431214685e-003
      -1.1749883799833816e-003 1.4993361810594443e-003
      9.7099206616333854e-004 -1.0710635351859356e-003
      -2.0358621088286443e-003 -9.4480331400153856e-004
      2.3344826171336121e-003 1.1807833845530226e-003
      -8.7761454646586060e-004 -1.2353315909023369e-004
      -8.0335361543655049e-004 4.5577445643688806e-004
      2.2180949941159682e-004 3.5022105571153538e-004
      1.9848487674135316e-003 -1.8387883160875911e-003
      -6.0637534695833016e-004 -9.0884991866162310e-004
      -1.8665454937010582e-003 5.7358990389163255e-004
      8.0909703840014130e-004 6.5933070316745934e-004
      -5.1897363988729196e-004 -9.4741204381995972e-004
      -1.2571615710279726e-003 -1.2138882889970318e-003
      -1.5418926208197472e-003 -1.0699220340385810e-003
      6.7595297667280216e-004 -3.9672694253009664e-004
      -6.1454605186656301e-004 3.5734698442924383e-004
      -1.2101541301683162e-003 -1.4835130180289135e-003
      2.3534868929401616e-003 -1.6976856257526927e-003
      1.0094420995380344e-003 1.9505111304965884e-004
      -4.4332313332659462e-005 1.8961613325118541e-003
      8.3857292905201901e-004 -2.4789631788720030e-003
      6.0186576002711366e-004 1.9878961684323174e-003
      5.0933095074148652e-004 2.5644088533023120e-004
      1.5898499037294846e-003 -8.0228044353265629e-004
      -2.1993694694199652e-003 -1.8787978654591457e-003
      -8.8317091063857894e-004 2.0158390148842182e-003
      1.7670915153813762e-003 -7.6900301032427430e-004
      -1.3267950822485669e-003 9.4482941908308443e-004
      -1.1486195656518455e-003 -2.2219924700944342e-003
      1.4092482511211544e-003 9.9855044972856221e-006
      -1.0721747125446996e-003 1.6645866224783417e-003
      -4.9863841668352214e-004 -1.4214526821695443e-003
      1.3887358044228115e-004 2.0645733808680468e-003
      -9.1143878255075909e-004 2.1450319790548822e-003
      -2.2482512496480129e-003 -1.7123216312213206e-003
      -1.3849697400611205e-003 -2.0542317228234726e-003
      -9.4012230610324707e-004 1.5713923560570164e-003
      -6.3850265226090077e-004 2.0588417154236206e-003
      1.5551729695337546e-003 -1.2078321736394238e-003
      -8.0375728830253776e-004 -1.3155294732831739e-003
      -2.3647171717809685e-003 2.4513476925293698e-003
      -3.8502160186469809e-004 -1.2220665660401641e-003
      2.5134747582696427e-003 -1.4761525216873020e-003
      -1.6698435133360690e-003 -2.2606408690568447e-003
      6.1072398660230753e-004 -6.1524860411425416e-004
      1.5584119865881345e-003 -1.4412059969588053e-003
      -4.9175447209385268e-004 -2.3452895160692148e-004
      -8.5809990811939796e-005 1.5762307778279337e-003
      4.7262857575803489e-004 1.2473238763832928e-003
      -2.5059983701819018e-003 -1.0566878418432827e-003
      -1.7916834807598819e-003 5.2287364535285197e-004
      1.2239853777674507e-003 1.4165862708390912e-003
      2.1109657794234830e-003 1.6031154890147099e-004
      1.2056593675951928e-003 -9.8148672187268245e-004
      1.3791357619237627e-003 1.1813014091378388e-004
      1.3141900564285320e-003 1.0782415456816034e-003
      1.8989086266387187e-003 -2.4801489856253818e-003
      1.9202140573381778e-003 1.0542311393290241e-003
      1.3204812731180261e-003 2.4558970140953133e-003
      -2.2546744688787105e-003 1.4765874787338032e-003
      1.8534027541395538e-004 -6.0238549128641898e-004
      2.5294915317457096e-003 -1.1113053973244174e-003
      -1.2283959765385958e-004 1.6589138856342620e-003
      9.4011605614009654e-004 7.1512608994766917e-004
      -6.2288209155210190e-004 -1.6996532758902670e-003
      1.5081394203849987e-003 2.4283736835870365e-003
      -1.5737557268805187e-003 -1.3762074889144659e-003
      1.3560371120027370e-003 1.1416508887659817e-003
      1.7265272460525725e-004 -2.2392941021406477e-004
      1.3723690838741989e-004 -1.7808758227519836e-003
      2.4598041566532549e-003 1.7401196464328068e-003
      -2.3256723550779232e-003 -2.1750313231381989e-003
      -1.0881428099870265e-003 -1.3967310638904348e-003
      4.0571252470324729e-004 1.2826882309743576e-003
      -1.0602744257067664e-003 1.0464663100125456e-003
      -1.1199069769714297e-003 2.3793012283257358e-003
      7.3759180067113834e-004 -1.6843812189099342e-004
      1.0831731441969948e-003 1.7032241006596548e-003
      -1.7263090454296204e-003 2.4813183435127744e-003
      -1.1254853082155319e-003 -2.3498480570524468e-003
      7.3987401152873094e-004 2.0419998893691210e-003
      -1.5788391330548350e-003 1.6309481302743962e-003
      -2.5200908214880217e-003 2.2517537958314402e-003
      3.7075210672343805e-004 5.9731394273300291e-004
      8.5561614888315105e-004 2.0753179710796361e-003
      1.2623804887674694e-003 -1.5702281997539526e-003
      4.1574958875883790e-005 -1.2556280270141643e-003
      1.8130599637885875e-003 -3.7486540024763207e-004
      2.5343246402589792e-003 1.6268795017639157e-004
      -2.0746054570007326e-003 1.5917963338245894e-004
      -1.9156823100098482e-003 1.2359155394071012e-003
      -2.4798268583856196e-003 9.7335350097650362e-005
      1.7743806116449340e-003 -6.6560819153699724e-004
      1.8239183222061633e-003 -2.5280260727151638e-003
      1.5223903860657035e-003 -3.7375706410826281e-004
      1.3843286248659097e-003 5.5465549832196641e-004
      1.6429292526391147e-003 -1.2011376279375257e-003
      -2.3517731394277095e-003 1.3091332474374556e-003
      -5.2985020999931081e-004 -6.2843297618149876e-004
      -1.0046338687651787e-003 7.3053386413245668e-004
      -1.4251225798383059e-003 -1.5890473498686717e-003
      -8.0762309645902435e-005 -1.3598342427780033e-003
      -2.3329599160474835e-004 2.1944935225832502e-003
      -3.1341928430198013e-004 -2.1922263295850375e-003
      9.7071599040508046e-004 -6.0095353360470230e-004
      -1.0077192213966163e-003 -1.6419727606589401e-003
      5.0062523016231519e-004 -7.9409760698395627e-004
      2.3268245151482894e-003 -2.0468511316547454e-003
      9.2268684687723699e-004 -1.4314526758790267e-003
      -8.4419261471443789e-004 -1.1969432282164984e-003
      1.8446382604288426e-003 2.3847812536233358e-003
      5.5158385214071565e-004 -2.0539159806931984e-003
      -2.2647566972810321e-003 -1.2628191512540651e-003
      1.1407262941905308e-003 2.1487395153413848e-003
      -4.7508851702659301e-004 1.2692018152679002e-003
      -2.4660597771764283e-003 -2.0416373966926577e-003
      2.2137754427938965e-003 1.3502825186573373e-003
      1.4719360545103945e-003 -2.3465435388210190e-003
      -1.5276287578448759e-003 -2.5793101753537207e-003
      -5.1924723391230166e-004 1.5539785870332219e-003
      -2.4201102895537148e-003 1.7466410681558149e-003
      6.3910461728594321e-004 -1.3580609603487308e-003
      4.2472001109238287e-005 1.8645721533267363e-004
      8.4512351475353009e-004 1.1142599147828771e-003
      -1.3356634894867308e-003 -3.6212014051385967e-004
      -2.2966934939481890e-003 1.9719099116868076e-003
      2.2489214812416091e-003 -9.8434573254274800e-004
      -2.3646822055203901e-003 -5.0097484966022668e-004
      4.6597902949478708e-004 -1.0127771509833752e-003
      -1.4790635154697787e-003 -3.6178672657465933e-004
      -1.1247278916798088e-003 2.1313179137396844e-003
      -1.4050098584243489e-004 -1.9379884581442455e-003
      2.0459234548227141e-003 5.5426752087562084e-004
      1.5580987702582152e-003 -1.6592700571560091e-003
      6.8541150144384015e-004 -1.4185491821169468e-003
      -1.1243757311370922e-003 1.7037839999180647e-003
      1.7760356005650851e-003 2.7166019658182066e-004
      -6.6032413410801761e-005 2.5261432233031028e-003
      -2.1638512433223623e-003 -2.0983609924951603e-003
      -1.8739297276718341e-003 -5.0356108291084347e-004
      3.7853657973991824e-004 2.7217982276205877e-005
      -1.2318122091693302e-003 6.0718514274289942e-004
      1.0577498401169922e-003 -2.4845962472362986e-003
      2.0520563877551054e-003 1.3329231160693901e-004
      1.5090166508916630e-003 1.3532937037258799e-003
      -2.5066093603463417e-003 -1.3801220405846833e-003
      2.3637018248354985e-004 2.4786624211029827e-003
      7.6784800687863461e-004 -1.3012221638679673e-003
      2.4906547033459827e-003 -1.1043562743765641e-003
      -1.4318982156896010e-003 -1.1471969312865490e-003
      -7.5506563896843071e-005 1.4521507289266069e-003
      1.8574904917527992e-004 -1.0509141955589495e-003
      -9.3023880985647160e-004 -2.0139141162951579e-003
      -1.4626053733747875e-003 1.7804692234739154e-003
      -1.0704200659513896e-003 -9.8626957586166815e-004
      -1.7319874843055476e-003 7.8345758797214839e-004
      5.5136955996922411e-004 1.3119419476491814e-003
      9.5378771390859142e-004 -1.1917524974114041e-003
      1.9075631831270469e-003 2.1677159175003814e-003
      -1.7479292680582246e-003 2.3388175365901915e-003
      -1.4414672328941158e-003 2.4868870447708391e-003
      -3.6368173046095998e-004 -2.1650288096681865e-003
      3.6176008094722134e-004 -1.9873334752539616e-003
      -2.5534401780306368e-003 -1.2356369717150067e-003
      1.5754160199984268e-003 2.0326737549197061e-004
      2.0704191576747257e-003 2.4541206103737821e-003
      -1.1129360633313013e-004 -2.5815101940882126e-004
      9.7799013941220810e-004 -2.1934174091139975e-003
      -1.5716432145992126e-004 2.4343539637844123e-003
      -5.6925812267788402e-004 -1.1063926488086289e-003
      -1.0589620961131262e-003 9.3560769119807239e-004
      2.0668680765194825e-003 1.5844745591952055e-003
      -5.6650202600989918e-004 -2.0296746044154049e-003
      -5.7459713064450134e-004 2.4229139811697362e-003
      -9.7908102784597805e-004 -1.4044535760038119e-003
      5.3885818634431710e-005 7.3332943086578219e-004
      1.2987625377323380e-003 9.4696911404761541e-004
      1.6466375797577881e-003 1.5725843182727206e-003
      1.2627209731022745e-003 3.6626579495774872e-004
      -4.5439681165526278e-004 -7.5170349193030416e-004
      -1.4771357314612963e-003 6.4382074620160520e-004
      2.0053240151096312e-003 1.6367624519122281e-003
      1.6429713666423501e-004 -1.6791105269938558e-003
      7.2402858495094580e-004 -8.9230933306759972e-005
      2.0985298570541612e-003 -9.3918047098428506e-004
      -3.2793165882070009e-004 1.5443748013422263e-003
      -7.7460306445195431e-004 -9.4644377074727887e-004
      2.4800196484244612e-003 -1.3037593140479181e-003
      -4.7615185133329630e-004 -1.5264765861654882e-003
      1.0522199353390413e-003 -2.5152948663925388e-003
      7.3848117129245790e-004 1.4683991932584002e-003
      2.2489098402212263e-003 -6.1216842800474814e-004
      7.3480674092816676e-004 -2.0921404743633855e-003
      1.7519260197886527e-003 2.3792654843926317e-003
      1.3762407255399945e-003 1.7461977553925800e-003
      -2.9916122920491741e-004 -3.0168951901389956e-005
      1.3930016051208713e-004 -2.4545563503154851e-003
      1.5346323445638969e-003 2.2455439994093561e-003
      -3.1973411084662004e-004 -2.3270237951949733e-003
      -9.3780133005073101e-005 1.5382390209741025e-003
      -1.1418663523841770e-003 -2.1339647616595503e-004
      1.2701827318841003e-003 2.4734774443696617e-003
      -1.8911428880156952e-003 2.4099490304432180e-003
      3.2248439323025722e-004 1.6721258845070407e-003
      7.2651704104675219e-005 5.5528402105477269e-004
      9.2241838286681154e-004 1.7547111551820601e-003
      -2.2266706500697299e-003 -1.6430416118774060e-003
      1.8033468382288182e-004 -2.0843847442644564e-004
      -9.1860680700187210e-004 -8.6621657482981054e-004
      -8.1895492432965339e-004 -2.2049529798704726e-003
      1.3352612924400760e-003 1.6325020633279231e-004
      -2.1770229739273995e-003 7.9891202548756045e-005
      -8.9293859437049197e-004 1.4952653041044913e-003
      8.3427153992725767e-004 1.8048090245484278e-003
      -1.1093135314631240e-003 2.2661017572407974e-003
      4.3245556051478025e-005 1.3295472811210040e-003
      -2.1025999124509821e-003 1.3876304967442748e-003
      -8.6437040254888707e-004 1.7546767166741284e-003
      -1.0196611202178757e-005 2.0805180527656121e-003
      -2.1240051155563427e-003 -3.3889322781723561e-004
      -1.4053008882247222e-003 -1.0435218573196759e-003
      -2.8128867928078720e-004 -1.2365144982238170e-003
      1.4608490312668320e-003 1.1721918355638080e-003
      -1.2737935530180628e-003 -3.2290518144118354e-004
      -1.6484498155832970e-003 -1.3144913423770244e-003
      1.5797121248415252e-003 -1.4503311266870185e-003
      5.2101370597676118e-004 -1.0419710774156651e-003
      1.1597451503213055e-003 -3.2361234055518283e-004
      1.4039471577146864e-004 2.4231037317322575e-003
      1.5250651063357316e-003 -2.1825908859228189e-003
      1.5280757139704379e-003 3.0895857881113007e-004
      4.4671431167336937e-004 -1.2095978185163077e-003
      1.2532654725769408e-003 -6.8651096035317598e-004
      -2.4272884849765130e-003 2.0177526800983065e-003
      1.1109269916011546e-003 -2.3316644181658277e-003
      -1.8437385686203536e-003 -1.0377288609433207e-003
      -7.9347525171873307e-004 -2.9633352243702536e-004
      2.4545276683399197e-005 -2.4814997153981486e-003
      -9.8593814293567047e-004 4.7108509374831542e-004
      -1.4109814433944890e-004 -7.4362863172909970e-005
      -1.6694075822461763e-003 -1.1760033743902774e-003
      1.5343944670439332e-003 8.9162463454529883e-004
      -8.5057887190847115e-004 -1.3233141334255719e-003
      1.1657989252063903e-004 1.6778581587739180e-003
      1.3177536662581869e-003 -1.8789048251350025e-003
      1.9252241707339976e-003 -1.1632104245189155e-003
      -7.0607329059923076e-004 2.3459798916964907e-003
      3.4663165399175178e-004 2.1176119873907240e-003
      -1.0372845026940479e-003 -8.2038984669447574e-004
      -1.1248331859996319e-003 -1.4345945581050522e-003
      -8.2234402191242199e-004 9.3508217411096138e-004
      -1.4387910677909120e-003 -1.2009279951206134e-003
      -1.8911334307008200e-003 2.0295048130297708e-003
      9.1404616238633307e-004 1.3770455659699375e-003
      2.6179926835170675e-004 1.2516337206673930e-003
      -2.5572184268598773e-003 2.1316231274732147e-003
      -1.7691190938068861e-003 1.9249163083295308e-003
      -3.7769086036333431e-004 2.3876478479126348e-003
      -4.8083947152634650e-004 -1.0189572123142279e-003
      1.7052339082915119e-003 -4.5050015421954501e-004
      -6.6459658968212262e-004 -1.8413322417457757e-003
      1.2613944070667183e-003 1.2632941157503916e-003
      -1.4124936597683718e-003 -8.9613520698742562e-004
      6.0413164084492882e-004 -1.9650355648477170e-004
      1.0160829896719160e-003 -2.4070053431890530e-003
      -2.2609067757711314e-003 -2.0269498730159032e-003
      1.8859647255618035e-003 1.1267463584633795e-003
      -1.2858599667850638e-003 1.6713688677533758e-003
      3.4171742673265031e-004 -2.4029998431904323e-003
      -9.6049734375318785e-004 -4.2551140955347707e-004
      2.5046342990979512e-003 1.6783770778336414e-003
      7.8994315564491708e-004 1.6290273196520586e-003
      -2.0087882764055964e-003 -1.6401430563460352e-003
      1.2355150646093638e-003 4.1181915109193433e-004
      -2.9269735946615917e-004 1.1485697639086623e-003
      -2.0122025892170196e-003 -2.0728968631044220e-003
      -2.0750501169170626e-003 1.0093765158756996e-003
      -1.1585408728291031e-003 2.0012345201183990e-003
      2.0586124039562448e-003 2.9702260988817168e-005
      -4.5384694992691501e-004 2.0804423054707668e-003
      -2.2518118684319529e-003 -1.5908465223185165e-003
      9.1401783287513869e-004 -1.4087573613244853e-004
      2.5178635237086871e-003 -1.5199617303061285e-003
      -8.4216401526361400e-004 8.5963523004954981e-005
      2.3215966180070899e-003 1.9211069649259136e-003
      -1.7661973050589314e-003 1.5208499528707170e-004
      1.3820719134878265e-003 -8.0884932174858583e-004
      2.4041297531331512e-004 1.7342704435893697e-003
      2.3893009711151527e-003 2.3316486265283075e-003
      -2.5018547993937981e-003 -2.2786890425255855e-003
      4.0874283369646757e-004 2.1860625352684796e-003
      -3.3740553716142378e-004 -1.8511491597068499e-004
      -1.8169196651339680e-003 -1.0029896518547615e-003
      2.0630881294554713e-003 -1.9511739622069674e-004
      -1.5259798638421159e-003 9.8233502290701025e-004
      1.5758939848934878e-003 -1.0203867646267510e-004
      2.3487006353101075e-003 -9.7470051926250531e-005
      -1.1633830248458427e-003 7.1215118789796515e-004
      -2.4314014358509574e-005 -1.5641060324742056e-003
      2.1755676715476176e-003 -6.1916091526108665e-004
      1.5090325222826991e-003 -1.0333204742517255e-003
      -1.6503136715924442e-003 1.6689392836078175e-003
      -1.6068428522242240e-003 -2.4106649452935009e-003
      -1.2659648427497975e-003 2.0602601999719326e-003
      -1.9883357501018504e-003 2.0844527997869786e-004
      2.2036150030782064e-003 -8.8362695702547686e-004
      1.1331568693295968e-003 -1.2024805787642652e-003
      1.0833194799334566e-003 2.3382365655958935e-003
      5.1165398279661670e-004 2.3542631195958984e-004
      2.3471684311650824e-004 1.0413264733754625e-003
      -1.4899343009217678e-003 1.3227397469034699e-003
      6.0509600043753516e-004 9.6656919517429468e-006
      1.5921621588830086e-003 2.5547347639614116e-004
      -1.5550021444752222e-004 1.2054542845117944e-003
      -9.5831635969185363e-004 1.1488956588517230e-003
      2.4901501415812992e-003 1.9337027925947264e-004
      -6.2211053737503178e-004 -2.5236714721288082e-003
      -2.2322898162581911e-004 9.4709822541409186e-004
      9.7068561360191786e-004 -8.2865082951601274e-004
      -2.1667452359576053e-003 -1.5587387064370842e-003
      8.8465264090919658e-004 -1.0779697101927421e-003
      -7.2187597768393194e-004 -1.6054686257832599e-003
      2.0209090383750006e-003 1.8853689518509039e-004
      -1.0231516670711992e-003 1.7099728820990732e-004
      -2.0002840726444180e-003 6.4000171657261934e-004
      1.6399830076330049e-004 -5.4402086059057184e-005
      1.8729036417300723e-003 -2.6027525223577810e-003
      3.7576275984017785e-005 -1.9272865374942308e-003
      1.0271071783960557e-003 -2.0620039735158458e-003
      1.4352827284977528e-003 7.9867339495599159e-004
      1.3828610138805447e-003 9.5160144448181035e-004
      -1.3741298137122679e-003 2.1974773615297274e-003
      3.5607885917681960e-004 -6.6593160827454958e-004
      8.2225607470576636e-004 1.9976005049075112e-003
      -1.0983412980940183e-003 7.9542047286282921e-004
      -1.1062825333097923e-004 2.6005701845321647e-003
      -1.7306168437354429e-004 6.0887151197949168e-005
      1.2609094912331331e-003 -9.5675207197837796e-004
      5.9823768060447192e-004 -1.4753484929815742e-003
      -4.6425503541130074e-004 1.8302529289644502e-003
      1.8274132199123472e-003 1.8046187501007682e-003
      2.4020787193623442e-003 -1.3441200495526757e-004
      -1.3062343995204468e-003 -1.3666440456350775e-003
      -2.1124699090876095e-003 5.0692909181929125e-004
      -1.8594317850481202e-003 5.5673231858712022e-004
      -9.8706064361699791e-004 -2.2867416466000445e-003
      1.1258666284105353e-003 -1.4333094731066962e-003
      7.5183679114325440e-004 1.2901022892967595e-003
      5.5663094846503493e-004 7.4131505119219327e-004
      5.0784873229102652e-004 -1.4331571709396229e-003
      -1.5437401534611830e-003 2.2109606494683902e-003
      1.0666236360184025e-003 -1.4834960940666559e-003
      1.4363143055977426e-003 1.3923696595030850e-003
      4.6877913736210726e-004 4.2987526865400971e-004
      -5.3886662790430899e-004 1.6508688094830839e-003
      4.2290509296556537e-004 8.4493920053704504e-004
      -7.7011026929990319e-004 8.4793023112072542e-004
      -2.1772360858676012e-003 6.1051537726491652e-004
      -1.4661096866212086e-003 -1.7740472444217150e-003
      -2.2053593383104132e-003 4.7894187843006694e-006
      1.6287842876917858e-003 1.6767201311558789e-003
      -6.5083398163813002e-004 9.0189930509300160e-004
      3.1349633314703152e-004 9.3766422124337892e-004
      1.9752715812774760e-003 -2.8919609842576187e-004
      1.1444969838403085e-003 5.8926951014309922e-004
      7.3321607195635219e-004 -7.7716584845973781e-004
      -1.8495689427658146e-003 1.9628003863483862e-003
      -2.2787819399448408e-003 1.8283579425997869e-003
      -2.2907861150378442e-003 3.0530138880137912e-004
      1.8503379021893561e-003 -2.4562186549541413e-003
      -1.1838822604070571e-003 9.5077091792158453e-004
      9.8654176891203849e-004 1.0259398386727840e-004
      -1.8153435727086213e-003 2.4478749055700708e-003
      -1.3823167831109305e-003 -1.2153559146723012e-003
      7.2441251423405255e-005 1.3216966512445720e-003
      1.3055688292031963e-003 -2.2178552577706238e-003
      3.0672795884285610e-004 2.6158655507953726e-003
      -2.2682377218739133e-003 -1.4726316589922723e-003
      -3.8280797581297457e-004 -2.2449449417732141e-003
      1.4864426662689928e-003 1.3439731825773185e-003
      -1.1582459754766732e-003 3.8393387917287148e-004
      -1.6899318716928581e-003 1.3417908661796322e-003
      -9.7930662303042379e-004 -1.7160620763584280e-003
      -1.2417318090292549e-003 1.9062419674057071e-003
      4.8737900349813909e-004 -1.1052575837535155e-003
      2.3536135064068870e-003 -2.3809768735502160e-003
      -1.8443471711096379e-004 2.1279240929225865e-003
      2.1188934929064732e-003 -2.2642116509965157e-003
      -2.8146162232525122e-004 1.7212421260585750e-003
      4.5797498378719466e-004 -1.7205900016446676e-003
      -1.4545711535586907e-003 -6.1838306771464120e-004
      -7.8255340833144360e-004 7.8520809598847771e-004
      -1.8797165881235622e-003 1.8388583069281566e-003
      -9.2906581485520173e-004 -2.1958062918340294e-003
      -1.3280795852512668e-004 1.8151871832345291e-003
      -1.5267650449837362e-003 -2.4102802195158082e-003
      1.2926231269181484e-003 1.7491415851562696e-003
      1.5125254149574200e-003 -1.1812659297507761e-003
      -2.3021697277304885e-003 -1.2059933637338730e-004
      7.6875589599538746e-004 -3.7697907626936354e-004
      -7.3167802574093525e-004 -1.1646166407393720e-003
